tree
version=v4
num_class=1
num_tree_per_iteration=1
label_index=0
max_feature_idx=22
objective=regression
feature_names=sub_category_encoded product_id_encoded state_encoded quarter city_encoded subcat_std_sales region_mean subcat_avg_sales op_frequency region_encoded region_std category_encoded subcat_frequency city_mean postal_code_encoded segment_encoded op_avg_sales month Sales day_of_week cat_region_avg_sales region_count city_std
feature_infos=[0:16] [0:1859] [0:47] [1:4] [0:528] [12.466863518420524:3216.185498860817] [216.35788897672376:243.52406695869837] [14.027850467289721:2215.8802121212125] [1:4] [0:3] [524.24078910335732:779.850548473044] [0:2] [66:1492] [1.8240000000000001:2354.395] [0:625] [0:2] [0.44400000000000001:22638.48] [1:12] [0.44400000000000001:22638.48] [0:6] [116.91747795698925:512.78618685121114] [1598:3140] [0:3227.0156944543487]
tree_sizes=8082 8148 8198 8210 8192 8171 8159 8207 8130 8158 8172 8169 8161 8188 8204 8239 8176 8203 8220 8216 8258 8220 8247 8265 8268 8270 8258 8256 8260 8279 8278 8257 8253 8265 8283 8296 8315 8326 8362 8307 8299 8343 8306 8367 8370 8410 8360 8362 8351 8363 8374 8392 8400 8340 8415 8385 8364 8305 8351 8331 8313 8347 8351 8361 8432 8350 8367 8426 8353 8409 8370 8359 8362 8422 8378 8394 8421 8440 8381 8402

Tree=0
num_leaves=100
num_cat=0
split_feature=18 18 18 18 20 18 18 18 18 18 18 20 13 18 13 5 20 18 13 18 13 4 18 4 5 5 20 5 20 18 13 13 13 13 18 20 13 20 5 13 18 22 5 13 18 13 13 22 13 22 22 13 13 20 13 18 22 13 2 22 14 22 18 13 15 18 4 5 18 18 11 18 13 2 17 18 14 5 18 18 13 18 18 13 12 18 18 22 18 7 2 15 13 18 14 5 13 7 13
split_gain=2.24527e+08 1.17893e+08 6.51335e+07 1.29361e+07 1.02092e+07 9.36835e+06 2.28452e+06 1.85032e+06 1.70966e+06 1.65085e+06 1.36961e+06 1.19496e+06 941335 722549 413216 357840 352734 337358 335716 325093 269305 242104 215337 205539 334111 184713 161547 154474 149163 148074 138366 118544 115962 108809 102536 97107.5 94313.8 88878.4 86450.6 84066.1 83708.7 81727.6 72549.8 71814.8 71437.7 66803.4 64395.8 63793.5 55566.4 54259.8 53482.4 52610.5 51923.2 50898.4 48116.4 43785 43272 42243.8 41464.2 61437.5 48205.9 43817.5 40631.6 39790.4 39744.8 39594.6 36872 33412 32774.6 32479.5 31985.4 30655.4 30469 33110.8 29200.3 28379.8 27466.5 27268.9 26763.3 23504.8 22999.4 22950.3 22904.6 22779.6 22679.5 22653.3 22478.9 21078 18940 18710.8 17438.7 17345.4 16732.7 15997 15898.7 14852 14330.9 14325 13462.4
threshold=1049.6850000000002 4079.4310000000005 235.93200000000002 2244.9230000000002 233.83877807038812 518.08600000000013 1553.8835000000001 2677.8060000000005 89.794000000000011 62.074000000000005 728.88300000000015 233.83877807038812 241.57202380952384 353.72400000000005 482.21250000000003 559.84257003808796 233.83877807038812 323.9790000000001 199.6818916666667 140.74300000000002 125.54500000000002 372.50000000000006 159.94000000000003 372.50000000000006 559.84257003808796 435.91163287622015 233.83877807038812 243.28309660892239 459.56006279727575 686.90000000000009 355.54148200000003 171.46511134453783 262.69166666666672 171.46511134453783 1168.3070000000002 122.81005066687574 307.54746195652177 459.56006279727575 243.28309660892239 198.0095947916667 666.06400000000019 665.73311335394862 243.28309660892239 319.39706250000006 899.28300000000002 303.82459277546781 695.29805714285715 551.93630338564878 280.53773235294125 381.27665396625548 389.23287862467646 258.66671287408252 147.85351333333335 459.56006279727575 310.6788631910897 31.620000000000001 225.05331724080756 358.60679450000003 30.500000000000004 1337.1952929166557 264.50000000000006 1027.5644709055566 397.26000000000005 278.27940000000007 1.0000000180025095e-35 386.79500000000007 266.50000000000006 577.73615811614934 25.940000000000005 47.964000000000006 1.5000000000000002 55.890000000000008 218.07735456790127 18.500000000000004 8.5000000000000018 31.620000000000001 121.50000000000001 435.91163287622015 32.016000000000005 37.232000000000006 117.89785714285715 215.80900000000003 174.29300000000003 211.32662500000001 853.00000000000011 31.620000000000001 299.96500000000009 372.16437691099844 122.36700000000002 222.29436183440865 29.500000000000004 1.0000000180025095e-35 63.865275000000011 14.885000000000003 488.50000000000006 243.28309660892239 204.59487687969929 508.89484227062712 145.45963333333336
decision_type=2 2 2 2 2 2 2 2 2 2 2 2 2 2 2 2 2 2 2 2 2 2 2 2 2 2 2 2 2 2 2 2 2 2 2 2 2 2 2 2 2 2 2 2 2 2 2 2 2 2 2 2 2 2 2 2 2 2 2 2 2 2 2 2 2 2 2 2 2 2 2 2 2 2 2 2 2 2 2 2 2 2 2 2 2 2 2 2 2 2 2 2 2 2 2 2 2 2 2
left_child=2 3 4 6 9 11 15 -5 18 12 16 17 20 41 43 26 40 49 38 32 78 -17 31 24 -8 35 -2 54 50 37 56 80 52 -27 -28 -12 69 51 71 55 76 53 -33 68 72 82 -16 65 -30 -4 62 84 -11 83 79 -22 -24 -34 60 -60 61 -45 -15 -44 -49 -19 -51 70 -14 -29 -52 -6 -35 -74 -53 -41 -7 -55 92 -20 -10 95 -21 94 -18 -40 -43 -85 -82 -84 -65 -47 -1 -63 -13 -58 -97 -64 -87
right_child=1 -3 5 7 8 10 23 -9 22 19 25 13 14 28 46 21 29 47 27 45 39 -23 30 -25 -26 33 34 36 48 -31 -32 42 57 44 -36 -37 -38 -39 85 75 -42 86 63 58 -46 91 -48 64 -50 66 67 74 -54 77 -56 -57 81 -59 59 -61 -62 93 97 90 -66 -67 -68 -69 -70 -71 -72 -73 73 -75 -76 -77 -78 -79 -80 -81 88 -83 89 87 -86 98 -88 -89 -90 -91 -92 -93 -94 -95 -96 96 -98 -99 -100
leaf_value=209.92633243969806 268.85705741601362 538.9731630251872 225.80265360752992 323.65287884972724 218.85858086942108 246.29782219239021 297.34204191241326 363.91745663758064 224.29988598152528 215.80412403119166 253.0498187540764 234.35528784192849 216.00443843575263 238.43695234332142 223.3649191696241 293.29210696208423 251.14243082079946 231.50219673635331 221.2512832542331 221.6568036884027 213.0814331007692 278.58959106024622 229.24869391713733 292.92290259530944 313.60829381170601 271.21040591459149 273.08320193278735 224.70218528441728 246.89451616593146 260.52715758004763 239.61792713177761 226.56284630864624 220.41528114037888 258.74575539936308 281.39071231854518 262.14278968785237 231.16907016821648 257.02054152965798 220.96336970825936 214.6585122750227 250.55792483826423 239.2148870727035 229.86137750564842 218.47006076445479 267.14027306527544 225.29627476861876 230.49151503460126 241.44019943543222 253.51454012495509 233.47404754511101 241.87825585080842 256.83354857317192 218.66186024253102 236.8035946685865 226.08834788219647 214.84463257966652 229.89384460853233 224.87079613991523 218.60768498350942 212.50564655956663 216.6068772525 221.44288957168146 241.64120153879759 235.07973269768502 235.53901282480163 236.22942645559277 228.32980873998892 247.2664247083689 217.53537403856174 227.16253040389608 246.28983465995117 222.18019078139878 266.07842106518183 261.03883035965708 252.10090373345162 216.16423139119715 241.48072082299282 241.67535604712202 212.93318420958275 223.6162870886927 225.87581570941865 235.44698629875924 222.40475104288981 239.97424179383066 247.56852774119017 222.37265858638233 243.28738091152766 236.28726717826368 229.13452650596258 225.34263858748636 231.772347954428 229.4111708814695 211.49431928668082 225.06337677556652 237.4854695159986 230.80208823429862 233.26960301140576 245.10833238387414 224.70597044521398
leaf_weight=148 26 22 52 21 152 20 28 25 41 91 24 86 400 28 32 24 56 34 94 86 590 21 48 21 23 22 24 112 32 29 26 44 143 23 39 23 40 39 50 509 25 33 102 34 37 21 21 25 21 22 42 22 211 20 42 185 24 25 66 22 31 26 26 25 21 37 38 39 215 103 27 34 22 32 32 166 29 27 63 76 42 25 41 20 26 48 23 69 31 46 44 20 126 23 20 32 89 22 51
leaf_count=148 26 22 52 21 152 20 28 25 41 91 24 86 400 28 32 24 56 34 94 86 590 21 48 21 23 22 24 112 32 29 26 44 143 23 39 23 40 39 50 509 25 33 102 34 37 21 21 25 21 22 42 22 211 20 42 185 24 25 66 22 31 26 26 25 21 37 38 39 215 103 27 34 22 32 32 166 29 27 63 76 42 25 41 20 26 48 23 69 31 46 44 20 126 23 20 32 89 22 51
internal_value=228.465 316.97 224.384 297.589 219.047 244.928 286.883 345.536 226.3 216.062 256.186 238.135 214.934 240.722 217.632 279.164 251.764 232.09 223.319 220.443 213.621 286.431 230.471 301.249 304.678 262.904 275.489 225.052 244.843 253.909 232.723 228.802 218.972 264.772 278.226 257.5 226.71 252.812 220.904 214.213 245.849 237.445 230.184 217.077 263.529 223.674 226.189 235.845 249.518 228.167 243.497 251.605 217.801 236.648 223.057 213.502 231.9 221.078 218.713 217.082 219.972 221.228 241.464 231.116 238.746 233.966 230.216 244.927 216.54 225.881 243.605 219.466 261.794 263.092 254.029 215.029 243.447 239.602 211.075 222.309 226.195 232.649 222.814 235.936 250.009 222.698 240.888 237.116 227.26 223.958 232.971 227.304 210.647 223.142 234.946 232.166 232.617 243.23 223.575
internal_weight=6215 274 5941 252 4716 1225 206 46 1375 3341 461 764 2657 535 870 134 278 229 802 684 1787 45 573 72 51 183 89 467 237 204 244 329 470 136 63 47 255 175 335 1450 74 298 215 817 114 214 53 117 53 112 184 136 302 242 212 775 218 168 202 88 114 83 76 171 46 71 60 108 615 215 69 186 77 54 54 675 49 47 337 170 114 170 173 195 82 149 56 89 73 87 69 41 274 49 106 145 121 48 99
internal_count=6215 274 5941 252 4716 1225 206 46 1375 3341 461 764 2657 535 870 134 278 229 802 684 1787 45 573 72 51 183 89 467 237 204 244 329 470 136 63 47 255 175 335 1450 74 298 215 817 114 214 53 117 53 112 184 136 302 242 212 775 218 168 202 88 114 83 76 171 46 71 60 108 615 215 69 186 77 54 54 675 49 47 337 170 114 170 173 195 82 149 56 89 73 87 69 41 274 49 106 145 121 48 99
is_linear=0
shrinkage=1


Tree=1
num_leaves=100
num_cat=0
split_feature=7 5 22 7 13 1 13 22 13 1 13 13 1 22 13 7 1 13 0 13 13 1 1 1 2 1 17 17 13 5 19 13 6 22 1 1 5 17 1 5 1 13 17 19 13 2 13 1 1 1 22 13 19 1 13 17 13 1 1 1 17 6 3 4 20 1 13 13 1 17 13 1 2 22 3 17 13 17 0 22 13 13 6 4 1 4 1 6 4 22 1 13 22 4 4 1 19 17 17
split_gain=7.61336e+07 4.07355e+07 2.02688e+07 9.2926e+06 3.87315e+06 3.15302e+06 2.8652e+06 2.73688e+06 2.58044e+06 2.00183e+06 1.83872e+06 1.71416e+06 1.39554e+06 1.14959e+06 1.13418e+06 959573 509021 455988 435957 432097 375386 361856 348555 731082 670785 468400 327390 324520 320423 300563 498968 1.02583e+06 281641 279724 263791 636789 256801 329779 256763 248731 248447 243754 219155 210264 201302 198119 195242 189480 237741 181732 160914 150725 143153 183260 133838 191507 242352 129298 433358 206576 120659 118115 115720 117078 112977 111165 103101 100789 98240.2 180559 89366.4 89014.3 198484 83805 81117.3 81003.6 79244.1 75392.2 123612 72349.1 71662.8 67459.5 67367.5 66161.1 61202.7 59472.2 59081.7 87008.6 59019.9 57610.4 61073.6 57459 55998.9 52977.6 57695.3 52386.6 64770.7 54777.3 83722
threshold=317.59875625786492 1851.5949169276316 716.73399504061945 175.70863587675385 695.29805714285715 1629.5000000000002 513.00795268817217 467.0902342145435 257.1370502392345 470.50000000000006 194.26149090909095 562.41966666666679 1500.0000000000002 206.37690433625301 241.57202380952384 508.89484227062712 1791.5000000000002 95.930384615384625 1.0000000180025095e-35 371.2511440677967 157.99521212121215 1771.5000000000002 1373.5000000000002 1423.5000000000002 10.500000000000002 1437.5000000000002 11.500000000000002 7.5000000000000009 237.4615171703297 559.84257003808796 5.5000000000000009 310.6788631910897 240.83005006190149 147.39226805360465 1566.5000000000002 1578.5000000000002 577.73615811614934 5.5000000000000009 1518.5000000000002 559.84257003808796 1400.5000000000002 187.89747368421055 11.500000000000002 3.5000000000000004 237.4615171703297 30.500000000000004 150.59508176100633 1690.5000000000002 124.50000000000001 1412.5000000000002 329.01281889025012 105.27550000000002 4.5000000000000009 1740.5000000000002 149.40537342767297 7.5000000000000009 155.37490141467731 91.500000000000014 77.500000000000014 114.50000000000001 4.5000000000000009 240.83005006190149 3.5000000000000004 285.50000000000006 459.56006279727575 1350.5000000000002 283.63370763187436 337.41783333333336 1740.5000000000002 8.5000000000000018 358.60679450000003 771.50000000000011 32.500000000000007 99.679488419687843 3.5000000000000004 10.500000000000002 205.87730952380954 4.5000000000000009 14.500000000000002 430.10621503629585 218.07735456790127 160.04000000000005 240.83005006190149 407.50000000000006 85.500000000000014 264.50000000000006 708.50000000000011 232.1603230315969 434.50000000000006 402.13394097968813 439.50000000000006 310.6788631910897 708.83881294773391 378.50000000000006 93.500000000000014 777.50000000000011 3.5000000000000004 8.5000000000000018 5.5000000000000009
decision_type=2 2 2 2 2 2 2 2 2 2 2 2 2 2 2 2 2 2 2 2 2 2 2 2 2 2 2 2 2 2 2 2 2 2 2 2 2 2 2 2 2 2 2 2 2 2 2 2 2 2 2 2 2 2 2 2 2 2 2 2 2 2 2 2 2 2 2 2 2 2 2 2 2 2 2 2 2 2 2 2 2 2 2 2 2 2 2 2 2 2 2 2 2 2 2 2 2 2 2
left_child=3 8 5 4 9 7 10 -3 13 41 18 15 22 73 17 19 20 -11 51 42 27 36 44 24 -24 -25 32 46 76 70 92 -32 57 -20 38 -36 47 -38 -30 -19 75 -1 52 80 89 66 -15 48 62 65 -49 -5 60 -54 -41 83 -57 58 -17 -59 -10 71 63 84 88 82 -46 -68 69 -52 -16 86 -73 -2 -40 -26 -14 -27 -79 -61 -39 -18 93 -56 -22 -83 87 -58 -62 -12 -91 -43 -31 94 -35 97 -97 98 -94
right_child=1 2 -4 6 -6 -7 -8 -9 11 14 12 -13 28 16 29 26 81 39 33 -21 21 -23 23 25 40 77 -28 -29 34 30 31 -33 -34 49 35 -37 37 43 74 54 -42 91 -44 -45 45 -47 -48 50 -50 -51 68 -53 53 -55 55 56 61 59 -60 79 64 -63 -64 -65 -66 -67 67 -69 -70 -71 -72 72 -74 -75 -76 -77 -78 78 -80 -81 -82 85 -84 -85 -86 -87 -88 -89 -90 90 -92 -93 95 -95 -96 96 -98 -99 -100
leaf_value=-5.9904875508787345 -0.70800273482863973 40.839382648468018 139.72953038215638 -5.9161249256134036 25.472245055978949 24.507491831625664 28.069060564354846 93.154613609313969 8.2754539551273467 -15.361312464434839 -0.89888837178548175 45.709376522346787 8.7653047601381946 20.424249685964277 -9.0859904888784513 18.962136507034302 11.884508553835062 -11.764565548767665 -12.107909960942727 27.105597204997622 9.8402118206024181 29.485426952838896 20.771099421713089 -11.040739885965984 5.496266425450643 6.8581371421813975 33.439390746986163 4.3804079697822988 17.383725614845755 -8.5457743278016221 -7.2380206108093263 20.639235917004672 30.92064970334371 -3.952382180839777 31.047337848489935 6.7022608910288133 11.486666688166167 14.731156033736008 9.5215397325019513 -12.190111553346789 -2.3049793705795749 -2.3404456902707746 7.5248672962188721 28.142533474281812 0.71280066366548889 -3.4033964321017267 7.7513377892971036 9.5973522015980315 5.3383853016830081 -11.232967130149284 26.675045394897463 1.055479318616183 25.339520321221187 14.280158925056458 -11.603495127360027 3.6151510932228783 -10.004711905585395 12.11095132191976 36.990415074825286 16.503421781063079 14.907366095951625 -0.29747246787661602 10.375174503056508 21.481513105589769 19.273248925042708 -0.68819292272840238 11.30073354357765 2.3849528506398201 14.181611761093141 15.332708723068237 -6.0011203005002898 0.030115368786980123 -11.454225158691408 4.9737890343556463 2.8722047749906778 13.594062859671457 1.5621107669103713 2.7433167202371949 -5.6919946136681929 23.381297762944151 21.96122500567601 1.2986929905414581 -1.0656650994505201 -6.8820425806818779 16.615316078662872 7.5953687751293195 -11.845896303653717 -2.0775720548629759 8.0976077342033399 -1.460027313232422 -7.5800705372341106 1.1525175855870833 -8.1876413204051826 -2.1569947450057323 -9.0780002734490814 -5.910039949417115 0.6400505946232723 -8.8084669394571282 -0.070235041777292881
leaf_weight=228 37 20 37 40 33 31 38 20 31 263 30 27 24 31 512 40 26 1034 73 29 24 20 36 36 30 25 34 55 32 92 33 22 36 32 22 21 38 26 43 111 33 271 41 39 135 96 20 21 41 41 32 138 29 31 150 22 45 30 20 20 35 21 53 29 43 70 21 32 25 25 115 34 27 87 32 21 42 71 23 65 29 20 28 37 30 60 64 20 20 22 63 57 27 23 70 36 26 61 24
leaf_count=228 37 20 37 40 33 31 38 20 31 263 30 27 24 31 512 40 26 1034 73 29 24 20 36 36 30 25 34 55 32 92 33 22 36 32 22 21 38 26 43 111 33 271 41 39 135 96 20 21 41 41 32 138 29 31 150 22 45 30 20 20 35 21 53 29 43 70 21 32 25 25 115 34 27 87 32 21 42 71 23 65 29 20 28 37 30 60 64 20 20 22 63 57 27 23 70 36 26 61 24
internal_value=0.247838 20.7077 79.7186 -5.73948 -8.61838 48.4452 0.973969 66.997 15.8015 -8.95602 0.241148 21.1616 2.99302 12.0955 -10.053 19.8466 13.7932 -11.5086 -4.51452 15.6027 15.0411 16.3495 0.751349 3.49056 9.35049 -1.04615 24.3329 9.7085 9.98787 -7.24615 -4.75761 3.91288 22.8655 -6.62905 12.5427 19.1579 15.7119 19.348 9.88426 -10.8611 4.45594 -3.47913 14.1524 22.526 -1.13658 0.292732 15.4545 13.9977 12.0133 -5.11406 17.4078 -0.511173 15.5901 19.6255 -9.10191 -8.28575 -6.37277 21.2084 24.9716 19.2451 13.7132 -7.41416 14.0255 16.3565 15.4333 -3.98905 2.18012 5.91762 19.408 21.7003 -8.52018 -8.20074 -5.05312 3.27842 6.68449 8.83065 4.18145 1.97742 0.679358 21.763 18.5434 7.45937 -5.49925 -10.6693 13.6042 6.0212 -9.68915 -7.56559 12.4311 -4.66636 -5.99606 -1.73344 -6.55038 -6.49238 -7.46996 -5.49534 -3.16323 -6.78633 -4.36769
internal_weight=6215 1407 108 4808 3365 71 1443 40 1299 3332 1405 531 890 768 2776 504 644 1828 515 259 538 432 674 275 120 155 245 106 216 948 321 55 211 337 150 43 412 132 107 1565 84 556 230 94 399 284 51 280 177 264 103 178 189 60 531 420 233 175 60 115 129 211 136 83 98 223 188 53 82 57 627 190 61 124 75 51 66 119 94 85 55 106 153 187 54 80 129 65 55 115 85 328 266 125 102 174 62 112 51
internal_count=6215 1407 108 4808 3365 71 1443 40 1299 3332 1405 531 890 768 2776 504 644 1828 515 259 538 432 674 275 120 155 245 106 216 948 321 55 211 337 150 43 412 132 107 1565 84 556 230 94 399 284 51 280 177 264 103 178 189 60 531 420 233 175 60 115 129 211 136 83 98 223 188 53 82 57 627 190 61 124 75 51 66 119 94 85 55 106 153 187 54 80 129 65 55 115 85 328 266 125 102 174 62 112 51
is_linear=0
shrinkage=0.1


Tree=2
num_leaves=100
num_cat=0
split_feature=16 18 16 18 16 16 18 20 16 20 13 20 18 18 18 16 13 5 4 1 18 16 16 20 16 13 13 5 5 20 13 4 14 16 12 0 18 1 1 14 18 13 13 13 13 13 17 13 0 4 13 13 16 13 20 16 16 12 13 20 17 2 14 2 13 20 14 16 13 13 16 20 13 13 18 14 14 20 18 13 20 13 1 13 6 14 13 12 1 1 14 18 14 14 14 2 18 2 2
split_gain=1.68202e+08 9.45511e+07 2.96002e+07 2.05756e+07 1.12474e+07 3.51016e+06 2.70543e+06 2.46982e+06 1.54102e+06 653936 641466 478744 460209 441609 435338 312378 270117 234252 182660 176679 175705 159862 149631 146963 139572 135326 128232 118974 118678 112872 87643.1 81671.6 75907.4 70727.9 69368.1 68666.6 67768.9 65287.7 61334.7 60993.4 60202.9 53947.8 51405.6 50915.7 49394.5 46878.5 46681.2 44546.6 43861.3 43126.5 40673.9 39223.1 38583.9 37510.7 36961.8 31790.8 30211 28091.2 25790.5 25220 23664.9 23104.4 22706.8 26897.4 22438 20551 19804.5 19788.1 19357.8 19248.7 19204.2 18809.8 18194.4 18061.6 17966.4 16583.9 20874.9 15621.2 15105.2 14977.6 14567.7 14150 13717 13608.6 13459.7 13239 12819.3 12068 11735.7 12969.5 13285.2 10729.1 10709.6 12771.8 10260.1 12021.1 10026.6 9809.52 14645.1
threshold=2742.2490000000003 368.94000000000011 4161.4810000000007 1049.6850000000002 95.122000000000014 1651.4450000000004 666.06400000000019 233.83877807038812 197.84500000000003 233.83877807038812 235.38760787878789 233.83877807038812 518.08600000000013 1418.7120000000002 2244.9230000000002 899.96000000000015 442.45512820512823 435.91163287622015 325.50000000000006 1394.5000000000002 28.767000000000003 48.530000000000008 246.27600000000004 233.83877807038812 276.12500000000006 355.54148200000003 125.54500000000002 522.63799615515336 559.84257003808796 348.44919349617572 174.09082954545457 296.50000000000006 264.50000000000006 35.346000000000011 280.50000000000006 10.500000000000002 140.74300000000002 1437.5000000000002 65.500000000000014 277.50000000000006 1168.3070000000002 280.53773235294125 204.33967687969928 337.41783333333336 149.40537342767297 302.83175000000006 10.500000000000002 287.68992822966516 9.5000000000000018 233.50000000000003 255.13738863636368 303.82459277546781 350.15850000000006 178.90300000000002 459.56006279727575 156.44240000000005 132.19200000000004 853.00000000000011 280.53773235294125 416.80940808615475 5.5000000000000009 14.500000000000002 236.50000000000003 15.500000000000002 272.2400258215963 459.56006279727575 121.50000000000001 432.21600000000007 258.66671287408252 154.81133660714286 132.19200000000004 356.26055577184309 367.97793043478271 237.4615171703297 77.660000000000011 124.50000000000001 52.500000000000007 459.56006279727575 15.556000000000003 280.53773235294125 459.56006279727575 244.35834074074077 1257.5000000000002 82.657128205128217 232.1603230315969 615.50000000000011 48.32866666666667 807.50000000000011 85.500000000000014 332.50000000000006 513.50000000000011 169.62400000000005 408.50000000000006 52.500000000000007 266.50000000000006 30.500000000000004 54.856000000000009 28.500000000000004 19.500000000000004
decision_type=2 2 2 2 2 2 2 2 2 2 2 2 2 2 2 2 2 2 2 2 2 2 2 2 2 2 2 2 2 2 2 2 2 2 2 2 2 2 2 2 2 2 2 2 2 2 2 2 2 2 2 2 2 2 2 2 2 2 2 2 2 2 2 2 2 2 2 2 2 2 2 2 2 2 2 2 2 2 2 2 2 2 2 2 2 2 2 2 2 2 2 2 2 2 2 2 2 2 2
left_child=1 4 -2 6 7 13 12 10 9 36 21 24 19 28 18 17 33 48 -7 27 42 26 65 66 73 44 86 67 29 -5 70 -15 41 43 -19 52 68 50 -25 -18 -31 -21 83 75 -22 56 49 54 -8 -36 -17 91 77 78 57 -47 -32 71 82 74 -29 -45 -62 -64 80 -13 -14 -3 -6 -23 -11 -40 92 -10 81 76 -12 -24 -28 -44 -37 -46 -26 -9 -51 97 -1 -34 -58 -90 -91 -38 93 -35 95 -63 -61 98 -77
right_child=2 3 -4 5 8 14 15 20 11 30 16 22 23 31 -16 37 39 34 -20 32 25 69 35 38 58 -27 53 60 -30 40 45 -33 87 72 46 64 51 -39 47 -41 -42 -43 79 61 59 55 -48 -49 -50 84 -52 -53 -54 -55 -56 -57 88 -59 -60 96 62 94 63 -65 -66 -67 -68 -69 -70 -71 -72 -73 -74 -75 -76 85 -78 -79 -80 -81 -82 -83 -84 -85 -86 -87 -88 -89 89 90 -92 -93 -94 -95 -96 -97 -98 -99 -100
leaf_value=-15.003972137951459 116.99047775268555 4.9722357495625822 279.55972784133183 35.480156230926518 -7.3273585323738848 73.240660349528 22.895712127685549 -9.7462201718930856 -3.2689101645240082 -2.6066956748425123 -10.799483552186386 3.6343382109712055 16.225454616546632 57.559338134765632 84.445619617808958 34.312471707661949 1.2455080270767214 22.267814445495606 60.470035226004462 15.371772845038052 -5.8414762446374606 -10.740651647035067 5.6197978316318427 14.876796798706057 0.87085121449910941 2.5047383050123853 -12.834565884949733 9.8183991608796291 47.043285086495537 39.509167896617548 -0.41028789191623222 49.476189086914069 11.587934987298375 -9.2527695270294839 33.106511143275668 7.989184255225986 -5.2297273682959293 38.088876897638492 21.428601993214002 -5.14840180744996 46.826277890412712 21.857003618323287 -5.9405360602369219 -6.2937467823857851 -5.2503863334655767 2.390610212939126 25.510406696095188 25.166291046142579 16.612787673950194 30.026278381347659 28.359694740988996 -0.70285470696056596 10.451663614356001 -11.244645360998206 23.256973484584265 7.0831183205951351 4.0253737861459902 16.464678600856239 5.9356622471259195 -3.2478309893608093 15.295459559559824 -8.529941811561585 13.997672760009767 9.0775413274765011 12.143649744218395 6.6424268687212917 12.135051109050883 8.5749162304785944 -5.2016698457192687 -9.0132169416198487 -0.19790459578075717 17.791024380638486 -5.5841409073426176 -0.60290543617059789 -2.2984109617928241 -10.649437115139433 -8.9313943717911926 8.5077640966935597 -11.872925771939553 -3.986785911046542 10.976875009139379 -3.3797738497826595 3.5614914715290071 -7.2757155746221542 26.907668772051409 -8.2668240422787882 -13.690403362073397 14.346448691231865 0.10982720646120253 3.5608517591769884 0.78740102521354149 -3.3997174895315805 -9.0216633088660956 -7.335042803628105 -7.4544566472371416 -11.178021688461305 -1.6359173375506737 -11.414642897896146 -8.3310046534384465
leaf_weight=122 24 30 21 32 113 24 20 27 54 71 92 143 20 25 22 24 25 20 21 29 99 111 126 20 36 36 366 27 35 22 96 25 29 47 28 51 81 22 44 37 23 23 99 46 102 42 34 20 25 25 22 34 23 481 28 22 22 28 26 70 32 40 25 20 31 27 29 31 69 154 62 21 26 48 47 225 171 22 295 65 24 67 40 128 31 23 190 35 42 39 31 53 132 133 30 30 86 138 31
leaf_count=122 24 30 21 32 113 24 20 27 54 71 92 143 20 25 22 24 25 20 21 29 99 111 126 20 36 36 366 27 35 22 96 25 29 47 28 51 81 22 44 37 23 23 99 46 102 42 34 20 25 25 22 34 23 481 28 22 22 28 26 70 32 40 25 20 31 27 29 31 69 154 62 21 26 48 47 225 171 22 295 65 24 67 40 128 31 23 190 35 42 39 31 53 132 133 30 30 86 138 31
internal_value=0.223054 -1.18189 192.856 27.4626 -6.53172 53.6656 19.3757 -9.39393 1.02667 -1.98023 -10.7493 4.61557 15.0584 45.7035 72.9172 27.8211 -9.0017 25.6706 67.281 12.4118 -4.56159 -11.9957 6.44755 18.5998 0.601357 -3.4047 -12.4074 10.3093 42.2151 40.0204 0.646264 53.5178 15.4023 -9.34427 27.7137 7.88087 -5.18456 33.6084 20.0592 -2.57021 43.249 18.2402 -6.40029 -9.84291 -3.85638 1.60986 28.6367 20.7943 19.4052 29.9021 31.4655 -3.73625 6.64125 -11.9165 20.0717 4.00366 0.943765 19.1127 3.21703 -3.32808 12.3658 -8.14852 13.2591 11.8109 9.88063 4.11209 13.8046 6.80311 -6.52147 -9.73678 -1.4838 20.2534 -8.1257 -2.01432 -4.02782 -10.2067 -9.58487 6.04909 -12.4054 -5.16618 8.94525 -4.50878 2.28698 -7.70606 28.2999 -10.5989 -14.204 13.0965 1.91383 1.49907 2.33261 -4.50592 -8.3375 -7.83578 -9.00172 -9.66483 -2.35921 -10.735 -10.3687
internal_weight=6215 6170 45 971 5199 229 742 3771 1428 777 2945 651 491 162 67 251 1226 183 45 281 826 1719 447 210 204 507 1454 165 112 77 427 50 116 1164 138 277 350 68 161 62 45 52 319 826 471 294 118 141 45 84 46 168 171 1142 121 64 230 93 102 372 104 146 77 45 106 170 49 61 182 265 133 65 338 102 216 680 263 148 661 164 75 169 76 155 56 417 312 64 134 112 70 134 312 180 100 70 156 394 256
internal_count=6215 6170 45 971 5199 229 742 3771 1428 777 2945 651 491 162 67 251 1226 183 45 281 826 1719 447 210 204 507 1454 165 112 77 427 50 116 1164 138 277 350 68 161 62 45 52 319 826 471 294 118 141 45 84 46 168 171 1142 121 64 230 93 102 372 104 146 77 45 106 170 49 61 182 265 133 65 338 102 216 680 263 148 661 164 75 169 76 155 56 417 312 64 134 112 70 134 312 180 100 70 156 394 256
is_linear=0
shrinkage=0.1


Tree=3
num_leaves=100
num_cat=0
split_feature=16 18 16 18 16 16 18 16 11 11 13 19 18 16 16 11 11 7 13 22 18 17 18 0 16 16 13 13 11 13 0 7 13 22 16 16 2 18 11 11 7 13 14 7 18 7 14 0 16 13 16 17 18 13 18 14 13 13 14 2 22 22 7 22 16 22 13 22 13 16 22 13 0 22 13 14 13 14 7 18 13 19 13 22 0 16 2 13 16 13 16 13 16 13 13 9 13 13 13
split_gain=1.36243e+08 7.65864e+07 2.39762e+07 1.66663e+07 9.11037e+06 2.84323e+06 2.19627e+06 1.24823e+06 1.19955e+06 876845 519660 398532 358907 324939 291676 282860 264630 250250 218566 155198 151638 146546 132050 121273 104119 98663.1 91162.7 82020.2 81385.1 80573.3 75077.6 80461.4 68483.2 61893.6 59065.7 57690.6 55259.1 54892.8 54320.8 52688.3 92891.8 51428.5 49404.7 49290.1 48337.7 47899.4 43424.6 41654.2 41277.5 40021.4 39966.4 35224.9 34974.4 34120 33684.6 33150.3 32295.4 31770.7 30864.7 30060.6 35035.4 32636.6 29257.5 26003 25318.2 25233.8 24771.4 24548.7 23828.4 23440.1 23131.9 23017.5 21173.7 21107.6 20778.2 20349.8 20050.1 18679 19548.4 18478.5 18174.8 22846.5 17052.5 16249.6 15714.6 15424.7 15323.6 14663.8 14346.7 12533.4 12399.8 13666 12279.6 12269.5 11813.8 11798.6 11280.8 11253.9 11024.4
threshold=2742.2490000000003 368.94000000000011 4161.4810000000007 1049.6850000000002 95.122000000000014 1651.4450000000004 647.87200000000018 197.84500000000003 1.5000000000000002 1.0000000180025095e-35 235.8067878787879 1.5000000000000002 1329.1730000000002 497.23500000000007 946.9670000000001 1.5000000000000002 1.0000000180025095e-35 317.59875625786492 442.45512820512823 480.07703245506951 728.88300000000015 10.500000000000002 32.416000000000004 1.0000000180025095e-35 246.27600000000004 276.12500000000006 154.81133660714286 302.83175000000006 1.5000000000000002 214.83341304347829 8.5000000000000018 317.59875625786492 310.6788631910897 228.66518914415062 45.264000000000003 1115.6830000000002 9.5000000000000018 140.74300000000002 1.0000000180025095e-35 1.5000000000000002 508.89484227062712 255.13738863636368 277.50000000000006 257.17649870506989 1553.8835000000001 317.59875625786492 117.50000000000001 10.500000000000002 599.93500000000006 304.34076796308511 49.592000000000006 7.5000000000000009 169.62400000000005 304.34076796308511 54.856000000000009 222.50000000000003 211.32662500000001 303.82459277546781 219.50000000000003 30.500000000000004 1337.1952929166557 1337.1952929166557 80.55566917293234 348.78822081404502 37.232000000000006 551.93630338564878 277.03723106060613 560.54971011653072 68.762037500000019 48.530000000000008 274.60314164936875 117.89785714285715 12.500000000000002 63.364347714107161 355.54148200000003 193.50000000000003 310.6788631910897 264.50000000000006 508.89484227062712 408.98000000000008 272.2400258215963 3.5000000000000004 187.89747368421055 311.28059943881379 6.5000000000000009 12.958500000000003 19.500000000000004 258.66671287408252 122.36700000000002 180.47626339285719 307.72100000000006 216.21591304347831 143.96800000000005 155.37490141467731 174.41500198412703 2.5000000000000004 307.54746195652177 337.41783333333336 82.103000000000009
decision_type=2 2 2 2 2 2 2 2 2 2 2 2 2 2 2 2 2 2 2 2 2 2 2 2 2 2 2 2 2 2 2 2 2 2 2 2 2 2 2 2 2 2 2 2 2 2 2 2 2 2 2 2 2 2 2 2 2 2 2 2 2 2 2 2 2 2 2 2 2 2 2 2 2 2 2 2 2 2 2 2 2 2 2 2 2 2 2 2 2 2 2 2 2 2 2 2 2 2 2
left_child=1 4 -2 6 8 12 13 15 9 29 22 -7 35 28 20 16 52 23 34 -14 45 -13 26 65 72 38 68 71 43 50 56 -32 54 -15 49 -5 -37 83 -25 40 66 -16 -20 58 -21 -8 -30 67 -42 85 98 -33 70 62 82 -41 -22 -39 -3 61 97 -51 -27 -47 96 -9 84 -26 -11 94 -6 -17 95 -71 -36 -74 -66 79 -79 -45 81 -49 -10 -18 -35 -12 -58 -40 -73 -28 -64 -92 -29 -56 -24 -19 -31 -61 -1
right_child=2 3 -4 5 7 11 14 17 32 10 18 21 19 33 41 27 37 24 42 44 30 -23 69 25 47 53 89 92 46 64 31 51 -34 39 74 36 -38 57 87 55 48 -43 -44 77 -46 63 -48 80 -50 59 -52 -53 -54 -55 93 -57 86 -59 -60 60 -62 -63 90 -65 76 -67 -68 -69 -70 73 -72 88 75 -75 -76 -77 -78 78 -80 -81 -82 -83 -84 -85 -86 -87 -88 -89 -90 -91 91 -93 -94 -95 -96 -97 -98 -99 -100
leaf_value=-9.2274342491513206 105.29142990112305 9.7204100346565241 251.60375395275298 32.840801818847659 -3.0324945758832129 56.23811362937645 16.782282042503358 4.3798410573426416 -5.2560655764911495 -13.435284899426746 -9.8231726361136165 65.909098815917972 52.571096332256616 10.83797459602356 35.049467531840008 -2.2931028663084425 -7.4260474613734662 1.4350347283558968 1.120957239151001 40.062077624981221 30.618588721233863 78.014707489013688 -10.792655720786444 2.8547030412789547 5.0368239191600255 -0.90613749563694013 -11.089300202911113 3.5474596659342446 17.163804408482143 -5.2869140549551084 17.539341545104982 28.164321027483261 1.3079354045969067 13.586453037261965 -7.292781547615431 35.532461500167848 41.364583749482129 -4.0553257609481248 -2.7175108942160242 21.120664367675783 16.290077270161021 28.355801391601563 -4.6335616121018255 14.298237410045807 46.601211242675788 24.523270797729495 12.026477765095862 6.5036450620208477 21.37851971435547 -7.4764792867140351 -4.2527463760594246 22.824336700439456 2.0681565263757 7.0394308233261116 -3.8797463201707409 16.457038568567349 27.860776797207922 -0.63256927167668064 4.5373866576839381 -9.0899957049976692 -12.495483363758435 -3.6524892619677951 1.4101612091064455 20.026100222269694 -3.1646395976909183 8.1605385497764313 15.625929208235309 8.5863377783033581 -11.93171422124623 -11.171341061592102 -0.16383713700084224 -0.33456612923252049 7.7295328378677368 -8.4323607864298022 -3.9268812727928166 3.7095611416241705 0.27427023705982029 7.2138566533724475 10.919318684169225 10.403213734462344 10.929284667968751 10.019726162968261 -3.4464868164093545 -5.2957874534721663 9.7910575866699219 -8.8198903766838281 24.128409090909091 -0.22368485347644704 1.5981430164310668 -10.268478425898754 5.7930698427889089 2.6919662499427797 7.0097204971313474 -1.582525064323538 -9.3157779452675271 4.3312881296331236 -3.0359344574712939 -6.740683514820903 -6.7769645834622327
leaf_weight=21 24 20 21 25 38 27 32 51 92 154 234 20 26 20 24 29 49 39 25 26 23 20 126 33 70 20 347 21 21 79 20 21 33 20 221 32 33 134 65 35 44 22 37 21 20 20 76 42 25 110 71 30 54 20 31 27 22 34 27 44 22 28 23 36 88 27 22 27 334 32 108 67 20 233 20 34 21 24 35 29 31 33 120 133 24 444 22 37 90 401 27 30 20 93 95 22 31 38 146
leaf_count=21 24 20 21 25 38 27 32 51 92 154 234 20 26 20 24 29 49 39 25 26 23 20 126 33 70 20 347 21 21 79 20 21 33 20 221 32 33 134 65 35 44 22 37 21 20 20 76 42 25 110 71 30 54 20 31 27 22 34 27 44 22 28 23 36 88 27 22 27 334 32 108 67 20 233 20 34 21 24 35 29 31 33 120 133 24 444 22 37 90 401 27 30 20 93 95 22 31 38 146
internal_value=0.200749 -1.0637 173.571 24.7163 -5.87855 48.299 17.4381 0.924007 -8.45454 -9.04193 -9.67435 65.6255 41.1332 13.2993 24.5897 -1.78221 -3.00797 4.15401 -8.09812 46.3956 23.1124 71.9619 -10.7938 2.23804 6.16035 1.1826 -11.3429 1.1877 10.8642 -4.96645 25.1809 22.915 -3.03908 16.1384 -8.40705 36.9232 38.4934 -4.66611 -0.671921 16.6765 15.5682 31.8481 -2.31319 9.44989 42.9052 19.8686 13.1387 7.52227 18.1337 -8.77211 -6.24016 25.0232 -0.106244 3.26893 -3.46602 19.0897 27.5819 -3.36263 6.74293 -7.66814 -8.95198 -6.7006 2.51483 21.6322 -3.58223 5.68854 12.8861 6.02483 -12.4062 -9.39732 -0.910474 0.295252 3.75626 -8.76311 -7.01345 5.19844 -2.5021 10.6171 9.41201 12.0391 8.89256 8.05072 -4.23178 -5.86932 11.5162 -9.16616 25.9946 -1.81289 0.773356 -10.6493 3.37007 4.16091 5.23637 -2.15683 -10.1578 2.47959 -4.65255 -8.00129 -7.08511
internal_weight=6215 6170 45 971 5199 229 742 1428 3771 3402 2945 67 162 470 272 777 550 651 1223 72 226 40 1722 333 318 255 1236 227 253 457 138 71 369 217 1161 90 65 350 135 197 135 46 62 156 46 88 97 203 69 920 238 51 200 120 336 62 67 168 47 242 104 138 100 56 219 78 66 97 488 486 146 186 115 265 241 54 109 109 59 50 106 75 212 182 44 678 44 102 157 748 80 57 41 124 221 61 110 82 167
internal_count=6215 6170 45 971 5199 229 742 1428 3771 3402 2945 67 162 470 272 777 550 651 1223 72 226 40 1722 333 318 255 1236 227 253 457 138 71 369 217 1161 90 65 350 135 197 135 46 62 156 46 88 97 203 69 920 238 51 200 120 336 62 67 168 47 242 104 138 100 56 219 78 66 97 488 486 146 186 115 265 241 54 109 109 59 50 106 75 212 182 44 678 44 102 157 748 80 57 41 124 221 61 110 82 167
is_linear=0
shrinkage=0.1


Tree=4
num_leaves=100
num_cat=0
split_feature=16 16 16 18 16 20 16 16 16 20 13 4 20 19 16 18 16 20 18 13 18 18 5 19 13 16 1 13 0 4 13 13 18 14 13 4 1 18 16 20 13 1 1 5 13 16 13 13 13 0 2 0 14 18 1 1 13 13 18 4 15 20 14 2 18 18 17 14 14 16 0 18 2 14 14 14 13 13 16 1 13 16 1 17 0 13 2 16 16 18 13 13 14 14 16 4 6 18 18
split_gain=1.10357e+08 6.2086e+07 1.94207e+07 1.08623e+07 1.00799e+07 2.15314e+06 1.67356e+06 1.65984e+06 1.17144e+06 476297 456067 349996 294431 281117 274527 223133 190471 183438 177477 165786 155342 151432 115682 113899 112642 76606.8 68033.9 67317.3 66552.1 61802.2 61612.4 61070.3 63883.1 51273.1 47131.8 45745.6 76550.9 40685 37680.9 36995.9 36554.9 36008.6 34940.9 34519.7 31275.6 30083.8 29088.1 28799.7 27304.7 26542 25426.5 24848.2 23288.5 22822.2 22236.8 49781.9 22166.9 22122.1 20534.6 19284 23105.8 19091.1 18792.4 17611.7 17522.9 17328.2 17115 32783.4 23344 19092.9 15939.1 17144.4 15002.2 22455.4 20975.5 14920.4 14840.9 14748.9 14547.7 14040.7 13836.4 12686.3 12581.7 12325.1 12223.3 12098.2 12029.5 10330.1 10296.7 10085.3 9451.47 8536.54 8535.58 12165.3 8284.32 8224.28 8208.34 10797.5 8183.17
threshold=2742.2490000000003 454.71000000000009 4161.4810000000007 1168.3070000000002 125.82000000000001 233.83877807038812 726.5680000000001 1651.4450000000004 252.98800000000003 233.83877807038812 258.66671287408252 371.50000000000006 233.83877807038812 2.5000000000000004 946.9670000000001 56.702000000000005 48.530000000000008 233.83877807038812 605.0540000000002 562.41966666666679 1418.7120000000002 342.42750000000007 435.91163287622015 1.5000000000000002 155.37490141467731 45.264000000000003 1373.5000000000002 178.90300000000002 8.5000000000000018 296.50000000000006 373.13494230769237 355.54148200000003 215.80900000000003 277.50000000000006 248.17342424242426 245.50000000000003 651.50000000000011 502.14900000000006 276.12500000000006 459.56006279727575 310.6788631910897 341.50000000000006 70.500000000000014 435.91163287622015 337.41783333333336 479.98600000000005 105.27550000000002 68.762037500000019 272.2400258215963 12.500000000000002 3.5000000000000004 6.5000000000000009 479.50000000000006 169.62400000000005 325.50000000000006 1547.5000000000002 147.85351333333335 157.20542673992676 30.460000000000004 325.50000000000006 1.0000000180025095e-35 459.56006279727575 395.50000000000006 19.500000000000004 92.700000000000003 546.89800000000002 10.500000000000002 419.50000000000006 389.50000000000006 383.52250000000009 12.500000000000002 169.62400000000005 11.500000000000002 122.50000000000001 266.50000000000006 97.500000000000014 367.97793043478271 204.33967687969928 89.576000000000008 1717.5000000000002 302.83175000000006 12.958500000000003 341.50000000000006 8.5000000000000018 8.5000000000000018 99.360922727272751 30.500000000000004 20.055000000000003 95.122000000000014 12.970000000000002 280.53773235294125 280.53773235294125 52.500000000000007 102.50000000000001 23.058000000000003 293.50000000000006 221.27125093740651 221.04000000000005 83.936000000000021
decision_type=2 2 2 2 2 2 2 2 2 2 2 2 2 2 2 2 2 2 2 2 2 2 2 2 2 2 2 2 2 2 2 2 2 2 2 2 2 2 2 2 2 2 2 2 2 2 2 2 2 2 2 2 2 2 2 2 2 2 2 2 2 2 2 2 2 2 2 2 2 2 2 2 2 2 2 2 2 2 2 2 2 2 2 2 2 2 2 2 2 2 2 2 2 2 2 2 2 2 2
left_child=1 4 -2 6 5 10 17 20 9 40 16 13 26 -9 22 27 24 37 42 25 23 41 -8 -5 47 44 38 61 34 -22 48 32 46 -25 -16 36 -24 -3 -10 66 53 91 -19 -30 81 -44 -11 -1 78 -34 -47 -39 57 -6 -20 -56 -18 -40 90 -43 -61 85 -37 -52 76 -65 68 -68 69 -23 71 -48 -46 -74 86 -72 -27 -26 -17 -57 -60 -12 -70 -59 -50 -7 -75 -79 -58 -49 -29 -14 -83 -94 -87 -53 -55 -98 -86
right_child=2 3 -4 7 8 15 14 11 12 31 19 -13 21 -15 28 30 56 18 54 -21 29 39 35 33 77 64 -28 58 43 -31 -32 -33 49 -35 -36 62 -38 51 52 -41 -42 59 45 -45 72 50 70 89 84 -51 63 95 -54 96 55 79 88 83 80 60 -62 -63 -64 65 -66 -67 67 -69 82 -71 75 -73 73 74 -76 -77 -78 87 -80 -81 -82 92 -84 -85 98 94 -88 -89 -90 -91 -92 -93 93 -95 -96 -97 97 -99 -100
leaf_value=-11.995934313605815 94.762284342447913 7.5612619546743547 226.44337855747767 41.788553320843242 -4.457647674200965 -7.4447362289428716 17.188811985138923 57.047096435546877 -1.2321286644254412 -2.2877118490312411 -8.6455857314632443 48.726034962047237 4.0516294813727685 72.953224029541019 36.013868789672856 -3.0126313590485121 -8.5071798162026848 11.093331933021545 17.218361067771912 -0.31919712741908279 47.013668457031258 7.9766651868820198 22.601573880513513 36.604568626767119 -9.6780920948473934 -6.3339336192607885 7.9169893181842319 -4.8067090691690861 23.886966094970703 39.98218347167969 3.9678331995010376 6.0115890695498546 2.8696811648777558 29.696478687633171 29.376246377696162 20.766585944680607 30.76809373335405 14.442391435031235 1.2119627189636231 12.868746830435363 -0.16052474661877281 5.9494133574622019 11.914551658630373 29.182929754257202 -4.9805737757215311 12.835841110774451 -0.01412479179074066 -10.978578512048932 0.58225239089557101 6.2423860960347319 18.422620872214988 11.953286282221477 0.72798298242929826 -1.0786123136679331 24.185764047373898 16.572427095685686 -7.2830786487635457 5.933940672874451 -3.0947205186875397 6.4828916953160221 10.659561665852864 -3.4645708743482828 24.300331059208624 13.579286891016466 -4.0636007278196278 16.929837660356 8.0382591703663717 13.26961085510254 5.5576817103794651 11.968957392454149 4.4829568509702327 1.8819949649760259 -4.6993029579520229 -7.688494177122374 -5.8209562725491004 1.6594745097345993 -3.4446456718444822 -9.1881302752343981 -1.5413435044293187 20.187419267134235 -0.46628391096989319 -8.6050873674665187 8.6779066681861874 3.076655644636888 -2.4010254172902359 -6.3459128458359668 -10.495257773766152 -8.3273654973902413 -5.862180213367238 -10.073481441341812 -3.3329125399674688 6.0104698840528732 -6.574332509248153 -7.8939120496256967 -4.91395250233737 9.2434696015857511 -3.8729912221431735 -1.5980683147907258 -0.3117358468674325
leaf_weight=170 24 26 21 23 122 50 31 25 28 23 177 22 73 20 20 138 132 32 32 38 25 23 24 21 394 160 23 115 20 25 20 39 70 22 23 34 22 29 25 34 38 56 30 32 51 28 99 227 56 35 27 24 37 30 23 21 204 36 121 26 27 32 27 29 62 33 23 25 28 25 27 92 32 37 36 61 20 411 131 22 24 70 24 26 38 85 26 211 68 269 70 32 115 178 77 21 54 34 37
leaf_count=170 24 26 21 23 122 50 31 25 28 23 177 22 73 20 20 138 132 32 32 38 25 23 24 21 394 160 23 115 20 25 20 39 70 22 23 34 22 29 25 34 38 56 30 32 51 28 99 227 56 35 27 24 37 30 23 21 204 36 121 26 27 32 27 29 62 33 23 25 28 25 27 92 32 37 36 61 20 411 131 22 24 70 24 26 38 85 26 211 68 269 70 32 115 178 77 21 54 34 37
internal_value=0.180674 -0.957328 156.213 25.1635 -4.80964 -7.24832 18.7532 46.5315 2.87741 0.206411 -8.55135 59.0629 6.26411 64.1165 25.4158 -3.20028 -9.39362 14.6354 15.9607 -6.79788 39.2935 7.77365 22.5678 36.1084 -9.86194 -7.05326 2.84823 -4.48189 29.5529 43.4979 -1.44874 2.23141 1.86918 33.0702 32.4635 24.1262 26.5073 10.9641 2.08125 9.89412 -3.04233 5.97025 14.0878 27.146 -7.56937 14.7397 1.13045 -10.8727 -1.71957 3.99392 15.4641 12.1597 2.82943 -3.49861 19.3817 20.4306 -7.44387 3.72315 -3.55069 7.2434 8.61063 -5.74131 22.3307 16.291 -5.51349 15.3626 9.21076 10.7629 8.46572 10.056 1.41223 0.899189 -6.43567 -7.00216 -7.74652 2.52577 -6.0129 -9.19937 -2.29613 18.422 -2.65967 -7.95146 6.99779 4.73572 -0.535626 -6.08497 -8.84684 -8.89613 -6.92785 -10.4877 -4.24906 4.64861 -7.613 -7.37599 -5.66529 10.6887 -2.50707 -2.99404 -1.37031
internal_weight=6215 6170 45 793 5377 4082 610 183 1295 724 3088 67 571 45 233 994 2086 377 277 1002 116 396 138 66 1682 964 175 574 95 50 420 446 407 43 43 107 46 100 152 182 278 214 179 52 722 147 302 666 400 105 117 74 124 240 98 66 404 87 330 109 53 244 61 89 242 62 148 48 100 48 279 191 182 131 99 88 180 1016 269 43 145 540 52 62 131 212 63 622 272 496 185 105 363 293 162 45 118 88 75
internal_count=6215 6170 45 793 5377 4082 610 183 1295 724 3088 67 571 45 233 994 2086 377 277 1002 116 396 138 66 1682 964 175 574 95 50 420 446 407 43 43 107 46 100 152 182 278 214 179 52 722 147 302 666 400 105 117 74 124 240 98 66 404 87 330 109 53 244 61 89 242 62 148 48 100 48 279 191 182 131 99 88 180 1016 269 43 145 540 52 62 131 212 63 622 272 496 185 105 363 293 162 45 118 88 75
is_linear=0
shrinkage=0.1


Tree=5
num_leaves=100
num_cat=0
split_feature=16 16 16 5 16 16 20 20 13 16 16 16 16 16 16 13 14 16 16 5 19 13 0 20 20 5 13 2 20 20 13 13 7 0 16 14 13 13 22 17 13 22 20 14 14 16 2 22 22 13 10 13 16 13 22 16 7 16 14 16 16 20 19 16 17 16 22 22 14 16 22 20 5 13 16 13 7 13 22 16 13 13 22 16 22 5 20 20 0 14 13 0 10 15 17 2 16 16 15
split_gain=7.34734e+07 2.37184e+07 1.6419e+07 5.21359e+06 2.83862e+06 2.26774e+06 2.12332e+06 369845 364420 356175 335239 267123 191555 186757 169572 159185 146657 132635 118306 115655 128343 108115 107551 104766 76712.4 87923.2 75212.9 70275.7 66946.5 66677 63354.2 54076.6 50034.1 49367.5 46548.2 41872.4 41197.2 41073.2 40899.1 40322.5 40057.4 37891.4 36121.1 32802.6 28922.7 28832 27400 24755.2 24388.9 23729.7 23674.3 22779.4 22554.5 22407 21733.2 21633.1 32397.5 21432 20190.6 19003 17751.9 17455.3 17779.1 17338.5 16170.4 15827.5 14982.3 14074.9 14009.4 13637.4 13602.4 13058.9 11931.8 11784.7 11475.8 11141.7 10974.9 10671.5 10374 10343.6 10418.5 10138 10004.7 9953.1 9897.88 9884.34 9410.58 9345.89 8541.86 8305.03 8450.57 8242.3 7931.77 6300.27 5715.91 5589.59 5584.33 5523.49 5445.45
threshold=774.20400000000006 2264.9550000000004 159.97400000000002 768.3363635184246 371.97300000000007 1259.9500000000003 233.83877807038812 233.83877807038812 204.59487687969929 531.76760000000002 1651.4450000000004 55.592000000000006 258.02600000000007 1004.2980000000001 62.044000000000004 382.68150000000009 382.50000000000006 70.990000000000023 258.02600000000007 435.91163287622015 4.5000000000000009 426.59737058823538 8.5000000000000018 233.83877807038812 416.80940808615475 522.63799615515336 274.7887222222223 7.5000000000000009 348.44919349617572 459.56006279727575 178.90300000000002 105.27550000000002 317.59875625786492 12.500000000000002 401.58950000000004 189.50000000000003 346.0898958333334 262.69166666666672 474.9836135878104 7.5000000000000009 594.13006250000012 1142.9418655647276 356.26055577184309 301.50000000000006 507.50000000000006 89.576000000000008 30.500000000000004 549.49057846210746 283.69170225183012 277.69164772727282 628.82894394242692 355.54148200000003 122.36700000000002 379.50036458333341 225.02410012657893 307.72100000000006 508.89484227062712 23.944000000000006 264.50000000000006 21.817500000000006 21.375000000000004 459.56006279727575 2.5000000000000004 83.936000000000021 8.5000000000000018 114.24400000000001 303.31154316915826 237.83233153802738 52.500000000000007 302.38000000000005 578.09906457297893 459.56006279727575 243.28309660892239 161.84843750000002 1115.6830000000002 174.41500198412703 508.89484227062712 117.89785714285715 102.29251568324635 215.97200000000001 237.4615171703297 248.17342424242426 237.83233153802738 23.058000000000003 65.749290942372212 345.1905121036296 416.80940808615475 356.26055577184309 8.5000000000000018 79.500000000000014 173.54056565656569 13.500000000000002 628.82894394242692 1.0000000180025095e-35 6.5000000000000009 39.500000000000007 28.704000000000004 471.91000000000003 1.0000000180025095e-35
decision_type=2 2 2 2 2 2 2 2 2 2 2 2 2 2 2 2 2 2 2 2 2 2 2 2 2 2 2 2 2 2 2 2 2 2 2 2 2 2 2 2 2 2 2 2 2 2 2 2 2 2 2 2 2 2 2 2 2 2 2 2 2 2 2 2 2 2 2 2 2 2 2 2 2 2 2 2 2 2 2 2 2 2 2 2 2 2 2 2 2 2 2 2 2 2 2 2 2 2 2
left_child=2 5 6 -3 7 13 8 18 14 21 19 30 29 22 31 17 -12 35 36 -7 -21 23 28 58 25 49 45 -27 -2 54 71 83 -24 74 76 41 81 -31 42 69 -17 68 73 -29 64 78 -43 -35 -36 50 -11 59 82 63 -9 -40 -57 89 -6 -32 -37 62 97 88 -26 85 -56 -44 -10 -20 -70 84 -65 -14 -15 -69 -25 -47 -13 -68 -81 92 -16 -1 -8 94 -61 -79 -28 90 -33 -41 -4 -64 -19 -87 -86 -50 -74
right_child=1 3 4 -5 9 10 11 12 15 24 16 26 38 33 52 40 -18 65 39 20 -22 -23 32 34 44 27 53 43 -30 37 51 57 -34 47 48 60 -38 -39 55 91 -42 46 67 -45 -46 77 -48 -49 61 -51 -52 -53 -54 -55 66 56 -58 -59 -60 86 -62 -63 93 72 -66 -67 79 75 70 -71 -72 -73 98 -75 -76 -77 -78 87 -80 80 -82 -83 -84 -85 96 95 -88 -89 -90 -91 -92 -93 -94 -95 -96 -97 -98 -99 -100
leaf_value=-10.729744062084839 20.752824946812222 69.399280548095703 -3.8573991353051706 125.84466135660807 7.0827811111722667 30.869461235633267 -7.475761636098226 0.23106131495967991 -7.6395433926413254 7.8163065751393637 51.954284022404607 -4.7498312162316365 1.700185428235842 27.83157029585405 -7.4740054789884596 -4.1775913803200977 40.564161682128912 -3.1578716697692872 2.970059520999591 42.431102391293173 33.090299860636399 16.336400813148135 14.328546593405983 9.0166532794634513 17.229580811091832 11.407026265462241 0.32985021642276219 15.258615064620972 26.894795417785645 3.3227703666521444 -4.493719155328316 -9.7796675168550937 20.29277529594226 22.584721342722574 8.6009996182990793 -8.0294005525385916 2.2353383887381781 8.5387661310342633 6.1294968151464699 -0.21074306786060337 -0.089109038284846731 -3.0187894260396764 8.2653442144393932 19.554128360748294 14.529140814145407 -2.5268478282860349 -7.3361347561790842 27.228751303932881 11.390363931655884 13.719949253400168 11.866632203132877 -0.84785663984917314 -4.3276754555878822 3.7249422073364258 4.4720338002361109 11.353416144053142 6.3649231972901719 -8.1098602650726974 3.5782343249167163 -3.5027715934975312 -7.0993008373839617 14.085431170463563 10.82517431093299 -0.93947207927703857 20.952528038024905 -3.5792988644956156 1.5177711580276489 3.9510567392587017 -7.4072320220290981 6.5057296264171605 -5.9286666351112913 -3.2285687217005981 1.0072962212008099 4.4440534708451258 31.02621244347614 6.855937861819422 6.0776685794194547 -1.681166540106682 -2.4638151618941078 1.5193727731704714 4.2918968764218421 -1.3776156239914445 -5.9070907233328356 -9.4555540984935984 -5.7306410564639707 -6.3893864203190462 -2.0702748847859249 -0.2672453971321766 -2.3183609719934135 -9.2362137400656437 -7.6724319565464079 1.84585599899292 -2.0336347665728591 8.4581079829822894 -5.04375730196635 -4.5261108852568128 -4.6168472813888339 13.740575065612795 2.7804646541332381
leaf_weight=197 35 36 57 30 35 26 24 62 141 27 26 23 23 22 81 76 20 25 24 38 24 21 22 24 28 30 21 40 36 36 114 26 39 24 33 479 21 26 41 40 35 49 32 32 24 42 21 22 20 24 31 37 54 22 29 30 23 327 31 101 359 24 23 22 20 86 125 23 93 20 188 27 43 49 23 31 27 73 145 23 33 53 82 89 123 69 84 130 29 586 71 38 41 22 45 21 71 20 29
leaf_count=197 35 36 57 30 35 26 24 62 141 27 26 23 23 22 81 76 20 25 24 38 24 21 22 24 28 30 21 40 36 36 114 26 39 24 33 479 21 26 41 40 35 49 32 32 24 42 21 22 20 24 31 37 54 22 29 30 23 327 31 101 359 24 23 22 20 86 125 23 93 20 188 27 43 49 23 31 27 73 145 23 33 53 82 89 123 69 84 130 29 586 71 38 41 22 45 21 71 20 29
internal_value=-0.246006 39.9838 -3.1922 95.0563 6.16341 29.8023 -6.23062 2.66909 -7.5593 11.9004 40.084 -2.56531 4.12118 23.6241 -8.68614 -6.54868 47.0021 -6.80647 -0.225216 36.4677 38.8153 9.43551 21.2213 8.87598 14.5963 13.5134 -1.0452 15.4734 23.8671 2.55072 -4.08019 -9.11934 18.1417 27.1095 10.0521 -7.20101 -1.91466 5.51012 6.20265 2.15663 -2.88843 -6.46873 5.22001 17.1677 17.3636 -1.76778 -4.31399 24.8058 10.9828 11.0754 9.98114 -3.18851 -6.09894 0.752542 1.87616 7.85431 9.1886 -8.7756 5.43671 -3.47815 -7.63094 11.7039 11.0315 0.298425 18.7808 -4.67338 2.36185 6.60348 -6.82616 4.57718 -6.41801 -5.30308 1.09871 3.56754 29.4644 5.61867 7.46072 -1.0759 -2.77678 2.02375 3.15318 -2.49182 -6.68574 -10.3332 -5.56002 -5.26145 -2.85234 -0.7757 -1.20611 -9.09434 -8.23726 0.79119 -3.0944 9.66794 -4.37023 -5.95462 -5.32302 12.5655 1.72149
internal_weight=6199 423 5776 66 1416 357 4360 880 3200 536 134 1160 586 223 1513 1687 46 1576 294 88 62 280 132 259 256 184 579 102 71 334 581 1296 61 91 193 1330 172 62 252 122 111 492 158 72 72 413 70 46 142 82 58 336 217 166 272 94 53 1010 66 299 838 109 85 144 48 246 210 86 422 44 281 245 94 72 45 54 51 245 168 181 56 151 163 286 218 160 185 203 50 683 97 78 98 45 70 90 194 40 72
internal_count=6199 423 5776 66 1416 357 4360 880 3200 536 134 1160 586 223 1513 1687 46 1576 294 88 62 280 132 259 256 184 579 102 71 334 581 1296 61 91 193 1330 172 62 252 122 111 492 158 72 72 413 70 46 142 82 58 336 217 166 272 94 53 1010 66 299 838 109 85 144 48 246 210 86 422 44 281 245 94 72 45 54 51 245 168 181 56 151 163 286 218 160 185 203 50 683 97 78 98 45 70 90 194 40 72
is_linear=0
shrinkage=0.1


Tree=6
num_leaves=100
num_cat=0
split_feature=18 18 16 18 18 20 16 12 18 13 20 18 18 16 16 18 13 18 13 5 2 20 13 0 1 20 13 1 16 16 13 18 20 13 13 16 7 17 17 1 13 14 2 6 17 16 1 1 18 13 20 0 2 16 16 1 13 13 1 14 16 13 16 5 14 20 16 14 16 13 13 19 18 18 2 13 14 16 21 13 1 5 13 14 13 16 18 13 14 13 13 5 2 16 13 0 19 16 13
split_gain=5.96315e+07 2.07221e+07 1.33252e+07 5.91666e+06 2.34751e+06 1.71989e+06 1.2603e+06 610851 305738 295311 283643 216598 196116 139358 134166 133572 94440 93773.4 86139.8 83635.2 81044.3 78039.3 76388.2 74848.6 91426.2 71752.3 70994.6 68382.4 64709.8 62067.4 61126.9 59211.5 53981.5 51249.6 44477.2 40471.2 38752.4 35905.2 34306.7 34256.3 34005.5 33198.4 31265.6 29604.6 36200.1 29520 29306.7 34669.5 28536.1 28021.7 27067.1 26664.4 25726.7 25704.9 29420.2 25623.1 27194.9 25060.5 22880 22493.8 22099.5 21065.4 20830 19052.5 17298.8 15940.7 15554.1 15472.4 15323.5 13912.1 13111.1 12726.3 11898.8 11854.5 11765.4 27193.5 11448.8 10952.4 10636.1 10372.9 10300.5 10127.1 9858.21 8778.84 8755.36 8501.01 8022.52 12692.6 11538.6 17720.3 7952.19 7855.53 11655.3 7264.6 7260.41 7261.2 6947.77 6945.97 6921.14
threshold=774.20400000000006 4079.4310000000005 159.97400000000002 1889.9680000000001 368.94000000000011 233.83877807038812 1115.6830000000002 280.50000000000006 546.89800000000002 205.87730952380954 233.83877807038812 55.890000000000008 1553.8835000000001 48.530000000000008 258.02600000000007 70.975000000000009 409.35523333333339 247.94000000000003 426.59737058823538 592.97866376459433 21.500000000000004 356.26055577184309 287.17960411899321 8.5000000000000018 430.50000000000006 459.56006279727575 275.71292222222229 871.50000000000011 692.45000000000016 1004.2980000000001 258.66671287408252 933.399 459.56006279727575 257.1370502392345 117.89785714285715 416.09600000000006 317.59875625786492 5.5000000000000009 7.5000000000000009 332.50000000000006 369.90131073446332 189.50000000000003 7.5000000000000009 232.1603230315969 10.500000000000002 350.15850000000006 702.50000000000011 1373.5000000000002 102.94500000000001 262.69166666666672 459.56006279727575 4.5000000000000009 18.500000000000004 614.13560000000018 692.45000000000016 77.500000000000014 237.4615171703297 332.91377777777785 1242.5000000000002 266.50000000000006 667.7120000000001 379.50036458333341 89.576000000000008 243.28309660892239 342.50000000000006 233.83877807038812 297.53800000000007 117.50000000000001 12.958500000000003 145.45963333333336 209.77817672413798 2.5000000000000004 16.025000000000002 28.767000000000003 29.500000000000004 355.54148200000003 615.50000000000011 114.24400000000001 2525.5000000000005 355.54148200000003 1213.5000000000002 243.28309660892239 112.46675000000002 419.50000000000006 342.08842820999376 20.870000000000001 215.80900000000003 264.05867156862752 513.50000000000011 261.59586666666672 158.34092307692313 435.91163287622015 34.500000000000007 73.602000000000018 310.6788631910897 8.5000000000000018 4.5000000000000009 99.250000000000014 272.2400258215963
decision_type=2 2 2 2 2 2 2 2 2 2 2 2 2 2 2 2 2 2 2 2 2 2 2 2 2 2 2 2 2 2 2 2 2 2 2 2 2 2 2 2 2 2 2 2 2 2 2 2 2 2 2 2 2 2 2 2 2 2 2 2 2 2 2 2 2 2 2 2 2 2 2 2 2 2 2 2 2 2 2 2 2 2 2 2 2 2 2 2 2 2 2 2 2 2 2 2 2 2 2
left_child=2 3 5 6 10 9 23 -5 18 13 17 33 19 34 32 16 41 49 25 26 -9 27 -14 24 52 35 51 28 42 36 63 -26 70 50 -1 65 -25 -34 58 45 77 57 -10 44 -18 78 55 -48 -15 -4 69 -8 -2 -23 -55 -37 -57 73 -19 -44 -29 62 94 93 96 -6 -66 -27 -43 -7 91 -67 -36 -11 -59 -76 -70 98 -16 85 -40 -64 -65 97 -51 -35 88 -88 89 -72 -74 -12 -93 -13 95 -32 -41 -84 -17
right_child=1 -3 4 7 8 11 12 20 21 15 14 30 22 48 39 40 43 38 -20 -21 -22 53 -24 29 31 67 -28 60 -30 -31 61 -33 37 79 72 46 -38 -39 80 64 -42 68 59 -45 -46 -47 47 -49 -50 84 -52 -53 -54 54 -56 56 -58 74 -60 -61 -62 -63 81 82 66 71 -68 -69 76 -71 86 -73 90 -75 75 -77 -78 -79 -80 -81 -82 -83 83 -85 -86 -87 87 -89 -90 -91 -92 92 -94 -95 -96 -97 -98 -99 -100
leaf_value=-9.4038331120991892 21.697955017089846 135.45558197021487 -2.9030217175695059 69.724972651554992 3.5191582306571627 -5.5661097618086002 28.75153629468835 54.8832520257859 8.7058854080381849 -6.6097563743591312 -0.46076866276562217 -4.0289887891875376 34.226496024753736 -6.4887596322816581 4.756275763231165 -5.2871470110757013 0.96263152890735215 1.8776603098099049 14.420633363723756 35.168831481933594 46.290860648777176 13.421083704630533 42.676725692749024 12.895691906322135 21.872321833734929 13.3642737865448 32.46877567685884 6.3159767014639723 18.048012376868208 21.747160314744519 -0.68433950901031493 29.216710789998373 8.4464361357688897 -3.7239301539957523 -8.2784927143343499 7.393875752176557 18.098240159197552 3.2984800858157026 -0.54712746808695234 6.9049656911329791 0.17247813224792483 -7.4676153020078182 11.383704496313024 -5.0295136395427917 -4.5732175057842621 7.2270718021392826 4.2691813737154005 8.5918550713495776 -4.3070966540313353 -1.0012756537307392 -2.426405175465804 24.118076070149741 16.927397449199969 18.461565036773681 13.764211752414704 13.251752356120519 8.6110256568245269 -3.3753458601123882 6.2594446932727648 15.6913141857494 10.802856990565424 3.3524479595097634 -0.74962766894272403 -2.5455495271682742 3.5031143503189086 8.1413539919359934 6.6827615737915043 9.8036458113919149 -6.6494477591993206 -4.2041193029428898 4.7337335393130777 5.3264887670675911 -8.0278460270382581 -5.4914354607366747 -3.0398061323165897 -8.2545493316650393 -4.2128068721294403 -3.1797599492249669 2.5286996999434361 -0.76307100412007933 1.6823591983318331 1.4338601410388947 -1.1007618034169788 -1.6531046349661691 1.5221219277381897 -2.0791746396284836 1.8254879896457379 5.0504341540129296 0.54816821041432295 1.3398870716989042 -7.1464776327850617 2.3592025231341927 -0.094552177563309678 -2.2533087398856879 0.34688307784497741 -3.0712305300510847 9.1410980939865123 0.45265234922463043 -3.9506687097060373
leaf_weight=278 20 20 98 26 23 112 23 21 21 244 32 36 23 223 34 77 27 26 24 25 23 33 20 22 23 26 29 21 23 31 25 21 20 48 526 28 41 42 43 33 20 281 27 45 21 25 28 55 82 44 65 27 26 40 20 28 23 53 22 22 23 22 28 50 25 29 40 23 538 227 25 36 193 155 20 20 20 81 58 37 40 88 63 105 20 91 26 23 44 40 218 49 32 64 20 26 24 53 78
leaf_count=278 20 20 98 26 23 112 23 21 21 244 32 36 23 223 34 77 27 26 24 25 23 33 20 22 23 26 29 21 23 31 25 21 20 48 526 28 41 42 43 33 20 281 27 45 21 25 28 55 82 44 65 27 26 40 20 28 23 53 22 22 23 22 28 50 25 29 40 23 538 227 25 36 193 155 20 20 20 81 58 37 40 88 63 105 20 91 26 23 44 40 218 49 32 64 20 26 24 53 78
internal_value=-0.221405 36.1136 -2.86887 31.1589 5.55195 -5.60756 25.5729 57.5727 10.6407 -6.80337 2.29868 -2.30878 32.4764 -7.81331 3.5947 -5.88961 -6.26767 -0.23145 8.65654 30.1278 50.3918 13.4271 38.1568 20.0575 22.1187 8.19388 28.5325 11.9095 13.4462 18.084 -0.942319 25.3776 2.29723 -3.67525 -8.29305 7.50806 16.2815 4.95911 1.75798 5.40248 -3.78662 -6.48294 11.9342 -3.18682 -1.4593 4.17996 8.4458 7.1336 -5.90221 -1.84018 -4.29568 26.2495 19.0016 15.6628 16.8958 9.82445 11.1589 -5.83076 3.88598 13.3177 8.66139 0.42546 0.0811085 -1.71285 6.57491 5.78174 5.45982 11.693 -6.86539 -4.6541 1.68823 6.58235 -7.96349 -6.17532 -4.35248 -5.64718 -6.56211 -4.12213 3.35193 -2.25106 0.527324 0.906811 -1.27753 -0.990649 -0.212714 -2.64715 2.27646 3.33924 1.7987 2.64521 -7.56036 0.865758 1.38982 -2.89255 -1.26793 -1.90119 7.8465 -0.391012 -4.6146
internal_weight=6199 421 5778 401 1418 4360 331 70 553 3200 865 1160 147 1520 572 1680 1424 293 323 104 44 230 43 184 90 299 79 137 93 94 580 44 333 580 1215 250 63 62 131 239 256 1331 70 93 48 117 162 83 305 162 404 50 46 93 60 79 51 492 48 49 44 209 187 371 122 88 65 49 839 339 271 65 937 399 93 40 558 236 92 176 83 116 271 221 64 139 158 49 109 65 411 113 81 100 71 51 57 116 155
internal_count=6199 421 5778 401 1418 4360 331 70 553 3200 865 1160 147 1520 572 1680 1424 293 323 104 44 230 43 184 90 299 79 137 93 94 580 44 333 580 1215 250 63 62 131 239 256 1331 70 93 48 117 162 83 305 162 404 50 46 93 60 79 51 492 48 49 44 209 187 371 122 88 65 49 839 339 271 65 937 399 93 40 558 236 92 176 83 116 271 221 64 139 158 49 109 65 411 113 81 100 71 51 57 116 155
is_linear=0
shrinkage=0.1


Tree=7
num_leaves=100
num_cat=0
split_feature=18 18 16 18 18 16 18 16 0 11 11 11 11 16 16 18 4 19 12 16 0 16 16 16 11 14 11 7 2 11 7 14 14 7 15 17 11 7 14 9 2 18 7 14 17 14 18 4 4 14 17 4 19 18 0 6 12 17 4 16 10 4 14 14 4 16 4 17 6 14 6 14 16 14 18 14 4 16 16 18 14 4 16 6 14 16 18 9 14 18 16 14 17 2 14 4 4 4 14
split_gain=4.83015e+07 1.67849e+07 1.07983e+07 4.7925e+06 1.77077e+06 1.03709e+06 1.03446e+06 501591 517843 396629 285006 220936 217604 150536 132918 120213 114849 102499 123803 71820.4 71239.3 64581.7 61766.3 52621.7 49310.6 48007.9 45429.5 44583.6 42443.5 41912 34178.2 33436 32203.5 31389.4 30632 40685.9 29322.9 31804.4 27605.5 26500.3 26487.1 28065.8 24723 24569.7 24216.3 23812.8 22016.2 21202 19884.8 19763.1 18189 17021.8 16598.7 16417.3 15420.8 15016.7 22832.1 14772.1 17388.5 13968.6 13124.7 12323.9 11830.4 37215.2 11612.5 11272.5 11203.5 17513.1 11014.4 10778.9 10497.7 10275.7 9274.01 9263.54 9237.44 8226.51 10471.7 8108.89 7993.53 7759.87 7368.16 7183.29 6797.23 6769.9 6698.47 6364.58 6193.29 5717.58 5579.66 5253.64 5172.26 5225.95 5109.39 4757.84 4735.88 10309 4661.45 6289.91 5216.96
threshold=774.20400000000006 4079.4310000000005 235.554 1889.9680000000001 70.975000000000009 1259.9500000000003 428.02200000000005 2264.9550000000004 10.500000000000002 1.5000000000000002 1.0000000180025095e-35 1.5000000000000002 1.0000000180025095e-35 599.93500000000006 1004.2980000000001 342.42750000000007 403.50000000000006 4.5000000000000009 532.00000000000011 21.375000000000004 8.5000000000000018 159.97400000000002 141.47600000000003 169.62400000000005 1.5000000000000002 564.50000000000011 1.5000000000000002 317.59875625786492 31.500000000000004 1.0000000180025095e-35 588.71214947657199 215.50000000000003 79.500000000000014 317.59875625786492 1.0000000180025095e-35 8.5000000000000018 1.5000000000000002 257.17649870506989 340.50000000000006 1.5000000000000002 32.500000000000007 479.91000000000003 317.59875625786492 150.50000000000003 4.5000000000000009 226.50000000000003 36.460000000000001 325.50000000000006 403.50000000000006 142.50000000000003 8.5000000000000018 109.50000000000001 1.0000000180025095e-35 27.417000000000005 15.500000000000002 221.27125093740651 532.00000000000011 4.5000000000000009 238.50000000000003 258.02600000000007 628.82894394242692 92.500000000000014 264.50000000000006 249.50000000000003 159.50000000000003 128.78200000000001 232.00000000000003 8.5000000000000018 240.83005006190149 614.50000000000011 232.1603230315969 150.50000000000003 185.73000000000005 377.50000000000006 102.94500000000001 167.50000000000003 245.50000000000003 45.940000000000005 33.099000000000011 89.794000000000011 289.50000000000006 372.50000000000006 5.1885000000000003 240.83005006190149 122.50000000000001 287.96900000000011 368.94000000000011 1.5000000000000002 419.50000000000006 25.347000000000005 5.9120000000000008 614.50000000000011 11.500000000000002 8.5000000000000018 79.500000000000014 123.50000000000001 156.50000000000003 411.50000000000006 189.50000000000003
decision_type=2 2 2 2 2 2 2 2 2 2 2 2 2 2 2 2 2 2 2 2 2 2 2 2 2 2 2 2 2 2 2 2 2 2 2 2 2 2 2 2 2 2 2 2 2 2 2 2 2 2 2 2 2 2 2 2 2 2 2 2 2 2 2 2 2 2 2 2 2 2 2 2 2 2 2 2 2 2 2 2 2 2 2 2 2 2 2 2 2 2 2 2 2 2 2 2 2 2 2
left_child=2 3 4 5 9 14 15 -5 -9 10 53 12 23 27 20 24 17 18 -7 43 26 45 57 79 29 28 39 40 34 54 42 -23 -29 -22 47 -36 37 -17 50 -2 41 -8 -16 49 -31 65 84 -15 66 94 -26 -45 -46 -1 83 -39 -57 58 -14 -40 -24 -62 63 71 -25 -13 67 -34 -48 77 -38 78 -63 -68 -59 76 -55 80 -21 87 -64 85 -53 -4 -11 -54 -58 -6 -79 -86 -84 -92 -76 -43 -12 -96 -81 98 -98
right_child=1 -3 6 7 11 16 13 8 -10 46 19 21 22 25 30 36 -18 -19 -20 62 33 31 60 64 38 -27 -28 32 -30 44 -32 -33 48 -35 35 -37 70 55 59 -41 -42 93 -44 51 52 -47 68 -49 -50 -51 -52 82 81 75 -56 56 86 74 -60 -61 61 72 69 -65 -66 -67 73 -69 -70 -71 -72 -73 -74 -75 92 -77 -78 88 -80 96 -82 -83 90 -85 89 -87 -88 -89 -90 -91 91 -93 -94 -95 95 -97 97 -99 -100
leaf_value=-4.2304284481826615 15.842067533923734 121.91002349853517 2.5181767554993328 40.096175066630053 -1.1674629034667179 41.560092010498046 3.2193141276186164 48.624102431077226 70.027188262939461 -2.1004551597263506 -6.1893719837665557 0.39466383806717253 -0.50766725086030506 11.188718514442444 22.884397733211518 2.7469359284059873 25.14167606647198 27.936646560142783 31.697359575544084 -6.0178753968831664 11.606122693148528 5.5903186289469406 -2.7980665601136394 3.1062330098946891 7.6167516286032537 8.1452360725402837 23.308233604431152 12.887286986311276 10.372885070906745 3.8437859120576281 25.438522637408713 1.6167536771131887 7.4903346204757701 16.28841609489627 12.700430565788633 18.401197027391003 6.9197373067179031 8.128605783396754 1.1164824182336981 20.442901193527948 9.7688316328772196 6.377952156066895 18.921938545473161 -7.8674986812908188 2.6224714797476065 -0.95582284544464913 -1.8038823184573045 14.958645009994507 11.146053586006165 -3.658208916805409 4.2611775732040407 -7.5197894014963298 -0.66296724151162545 -0.26183560043573378 5.4659154308253326 7.3491642517202038 2.5801705145835876 -4.9635572825298944 -3.9170949682020222 4.1695806788637286 0.92740129970368879 -2.6120200633108617 -8.3852460098266608 -1.2895779418945315 0.8494223827907913 2.7878262868294352 5.8188684201240548 11.497043863932292 0.50678142738342291 -4.4381957502926097 9.8154715946742481 -6.4601957099382261 -0.31210220478199147 8.5463032325108852 -4.1720706628804853 -3.4176516483305024 -2.9338718549771743 -4.7001036910123606 -5.0926437653630625 0.19450793198176794 -6.4158577143674167 -1.8732037703196209 -5.5640703439712524 4.4668754967776207 -4.1584625233880805 1.5199046416716142 5.0688028180599218 -3.1365836691856384 -6.0277211507658173 -2.7757185060977938 -6.9244729240974756 -5.6161102890968326 -2.5520799808502197 8.4129176263455996 -5.5064553397042415 -7.3155144343300478 -0.73903075892750814 0.08042619824409486 -2.2903362646698953
leaf_weight=207 31 20 94 24 29 20 22 26 20 46 275 81 21 35 32 36 26 29 35 148 22 30 114 30 35 20 20 30 36 23 23 72 20 41 21 31 31 29 22 21 29 20 31 253 23 158 118 26 40 27 30 164 34 22 29 34 20 183 52 47 21 50 20 20 95 26 20 24 25 34 21 129 27 33 88 128 44 43 253 35 379 24 32 22 61 22 20 30 120 50 664 32 25 27 42 126 41 32 46
leaf_count=207 31 20 94 24 29 20 22 26 20 46 275 81 21 35 32 36 26 29 35 148 22 30 114 30 35 20 20 30 36 23 23 72 20 41 21 31 31 29 22 21 29 20 31 253 23 158 118 26 40 27 30 164 34 22 29 34 20 183 52 47 21 50 20 20 95 26 20 24 25 34 21 129 27 33 88 128 44 43 253 35 379 24 32 22 61 22 20 30 120 50 664 32 25 27 42 126 41 32 46
internal_value=-0.199265 32.5022 -2.58198 28.043 -4.59548 23.0156 6.69966 51.8154 57.9298 -5.77249 -6.10218 -1.42687 -2.25517 10.4134 19.0665 3.99533 30.9496 32.7473 35.2838 -6.464 17.1091 0.647267 -3.42884 -0.23771 3.02002 12.7456 19.2579 8.92615 13.3631 2.24412 22.1391 2.78545 9.91977 14.6533 14.3157 16.099 6.06339 5.30554 4.58921 17.7001 7.23295 6.16714 20.9346 -6.89363 0.910032 -0.175731 -2.29754 12.7956 9.26995 -6.28484 6.06803 -7.14353 0.254922 -3.61099 3.40339 6.19981 5.44393 -4.21037 -2.9363 3.19613 -2.06855 -1.21992 -5.85854 -5.52407 1.39106 0.97618 8.4963 9.67581 -1.39992 -6.16719 8.08917 -5.68387 -1.80556 7.51708 -4.52458 -2.95005 -2.04319 -6.27179 -5.43413 -1.19356 -6.51457 -0.425748 -6.93819 2.88776 -3.11512 0.19459 3.82449 -2.16871 -5.67749 -3.5356 -6.80716 -6.86432 -3.81367 7.54697 -6.44493 -6.86325 -0.819963 -1.11834 -1.55926
internal_weight=6199 421 5778 401 4748 331 1030 70 46 3462 3162 1286 919 434 221 596 110 84 55 2761 135 367 581 338 405 169 72 265 149 271 86 102 167 63 113 52 191 139 134 52 98 69 63 1615 126 265 300 61 137 470 65 1145 103 401 145 103 74 369 73 69 212 98 1146 550 125 107 97 44 143 596 52 530 77 53 296 194 66 562 401 213 399 80 892 116 157 56 40 59 163 111 728 696 113 47 443 168 154 119 87
internal_count=6199 421 5778 401 4748 331 1030 70 46 3462 3162 1286 919 434 221 596 110 84 55 2761 135 367 581 338 405 169 72 265 149 271 86 102 167 63 113 52 191 139 134 52 98 69 63 1615 126 265 300 61 137 470 65 1145 103 401 145 103 74 369 73 69 212 98 1146 550 125 107 97 44 143 596 52 530 77 53 296 194 66 562 401 213 399 80 892 116 157 56 40 59 163 111 728 696 113 47 443 168 154 119 87
is_linear=0
shrinkage=0.1


Tree=8
num_leaves=100
num_cat=0
split_feature=18 18 16 16 20 18 16 18 12 18 16 22 16 17 18 5 18 7 20 22 18 22 22 1 22 2 22 18 7 22 1 20 5 22 22 18 16 1 14 7 14 18 16 22 1 1 22 1 1 1 22 2 1 22 10 20 20 20 16 22 14 14 16 17 22 10 19 16 1 22 20 22 22 5 22 22 17 16 14 14 22 9 1 22 22 3 2 2 22 22 14 14 7 12 14 22 2 5 22
split_gain=3.91242e+07 1.35958e+07 8.74659e+06 3.90546e+06 1.64357e+06 837913 701394 603780 406551 361311 324360 181173 121934 108432 97372.1 78981.2 97903.7 92105 65958.1 63199.4 62560.4 61166.6 55832.3 53794.3 49591 48996.1 75838.3 47741.9 47541.5 47419.2 45224.5 43674.5 40908.4 41721.7 40553.2 38995.5 35399.2 105878 37858.7 86782.7 37159.4 30876 29790.4 27662.4 27525.7 26989.4 26060.4 25307.9 25098 24585 22168.8 21652 21316 19889.7 35661.6 19108.3 18433.2 16987.9 16132.7 16035.2 15251.7 26095 13477.1 12759.2 13309.1 12722.3 12629 12357.4 12297.3 11911.9 11555.6 10990.4 10611.9 10397.9 10112.6 9535 9376.04 9097.69 8825.95 9957.69 10485.2 8634 8622.7 8574.25 8543.45 8481.33 8412.67 8267.38 10405.5 7250.32 7885.89 6422.67 6257.81 13576.5 9842.8 6052.94 6025.96 5754.46 5736.63
threshold=774.20400000000006 4079.4310000000005 235.554 1651.4450000000004 233.83877807038812 428.02200000000005 2264.9550000000004 1112.9820000000002 280.50000000000006 79.250000000000014 89.576000000000008 340.39258329864157 599.93500000000006 10.500000000000002 342.42750000000007 435.91163287622015 1259.9500000000003 429.69395152380952 233.83877807038812 1035.7954979402029 1418.7120000000002 551.93630338564878 340.39258329864157 1406.5000000000002 1048.2759009693684 12.500000000000002 2022.2766410817878 153.15000000000003 317.59875625786492 2022.2766410817878 1530.5000000000002 356.26055577184309 522.63799615515336 467.0902342145435 882.59729095069201 119.97800000000002 946.9670000000001 1566.5000000000002 236.50000000000003 508.89484227062712 88.500000000000014 37.232000000000006 27.417000000000005 572.71239547104631 812.50000000000011 375.50000000000006 139.51708660840299 702.50000000000011 1735.5000000000002 1629.5000000000002 366.76041012710698 29.500000000000004 119.50000000000001 378.59917088130709 628.82894394242692 459.56006279727575 505.93199323476591 459.56006279727575 287.96900000000011 572.71239547104631 215.50000000000003 436.50000000000006 32.416000000000004 4.5000000000000009 335.18901478804065 628.82894394242692 1.5000000000000002 27.910000000000004 96.500000000000014 162.11497651470384 459.56006279727575 551.93630338564878 539.62869384123576 243.28309660892239 633.05591808483075 480.07703245506951 5.5000000000000009 41.304000000000009 363.50000000000006 169.50000000000003 407.79679568521107 1.5000000000000002 1284.5000000000002 317.23844559905797 572.71239547104631 3.5000000000000004 30.500000000000004 3.5000000000000004 290.53424598401085 296.84999620351408 573.50000000000011 419.50000000000006 508.89484227062712 853.00000000000011 512.50000000000011 942.03562824855442 18.500000000000004 345.1905121036296 102.29251568324635
decision_type=2 2 2 2 2 2 2 2 2 2 2 2 2 2 2 2 2 2 2 2 2 2 2 2 2 2 2 2 2 2 2 2 2 2 2 2 2 2 2 2 2 2 2 2 2 2 2 2 2 2 2 2 2 2 2 2 2 2 2 2 2 2 2 2 2 2 2 2 2 2 2 2 2 2 2 2 2 2 2 2 2 2 2 2 2 2 2 2 2 2 2 2 2 2 2 2 2 2 2
left_child=2 3 4 7 9 14 13 36 -8 11 22 46 21 -5 18 -9 -17 -18 53 42 -19 28 55 45 35 29 51 57 66 -21 47 32 96 -34 73 69 38 44 40 -40 -2 84 59 -25 -38 63 77 52 58 -33 -50 -27 -23 97 82 67 92 89 70 -13 -53 -62 -48 -16 -65 -61 -7 -6 -66 -11 74 85 -51 -29 -20 -59 83 -1 79 80 -37 -47 -55 -75 -24 -60 -86 -30 -89 -12 -91 -44 93 94 -43 -67 -14 -4 -69
right_child=1 -3 5 6 10 12 8 15 -10 24 27 19 31 -15 23 16 17 20 48 25 -22 30 41 43 -26 26 -28 34 87 -31 -32 49 33 -35 -36 78 37 -39 39 -41 -42 56 91 -45 -46 81 62 -49 50 72 -52 60 -54 54 -56 -57 -58 75 71 65 61 -63 -64 64 68 95 -68 98 -70 -71 -72 -73 -74 76 -76 -77 -78 -79 -80 -81 -82 -83 -84 -85 86 -87 -88 88 -90 90 -92 -93 -94 -95 -96 -97 -98 -99 -100
leaf_value=-7.8220820747345332 14.73796700835228 109.71902144908904 -1.7701160534568456 29.985392920176192 -4.6453454017639162 2.5810641668059611 62.3942493620373 21.136846408328495 43.520566650390627 -5.8451244129854096 -1.6123252282823834 -5.9610426789611139 6.6654744839668272 39.824827648344495 3.2098757463693617 21.990355903871599 34.262283107212617 22.103398895263673 1.497600203198056 -3.5093586755961912 29.831062074141069 7.6359898278659051 -3.1368423737731637 6.2072617227380924 1.0287710575262705 -0.8433160742123923 -9.9556938171386733 -0.32489807910862423 6.8192924186161594 1.7743039186658534 12.900058409746956 15.897146293640137 15.111352779467902 9.429393089669091 5.4138769567012792 -3.815917680329747 17.389815766470772 24.026008224487306 9.6446503054711137 17.478704232435959 20.076780804720794 0.76865505954607372 -4.4408962721726315 10.724965800409732 12.532509212493897 3.8137716690699257 -6.7442974116482439 5.9810853096155023 3.6227346518765327 13.702869644165041 8.1166426965168537 -2.1303447181528266 11.945366413891316 -0.89620132653609574 5.5271165919303904 -1.8324202105684102 1.6025692836098049 -0.41843665130710339 2.4521132868528368 -5.4691386279693015 -7.2162034708878098 -2.5209109616279601 -5.8192824115309607 3.9274838328361512 8.8072955276284901 -3.5305457099539335 5.6559438431964209 -4.4605719710841321 5.5537488469710716 -3.8151725936121275 4.2527299736227304 5.5839341345955349 10.612444935798646 4.0529798076266337 3.9940348422527316 1.735180045778935 0.94034036732945891 -6.2328344549451558 -2.974751813709736 -0.87497540656477213 -1.5262449253929988 1.13142186353604 1.7867217817902565 1.6058667045500543 -1.1377155438336459 4.7459234838132502 -3.1209446542603629 7.0884845714569096 9.6540470056755598 -0.67170224985201588 1.3659011580727318 -5.1492067915598554 -2.8289766703660675 -1.7743423941387579 -1.8800455951690673 -5.4052036603291835 8.9556316751848772 0.26607327461242675 -2.9676944033712402
leaf_weight=253 32 20 23 24 124 22 21 37 25 34 70 670 20 21 20 31 21 20 86 41 22 22 153 33 30 24 22 42 35 29 34 25 24 28 24 36 28 20 31 26 22 47 297 23 20 24 589 26 23 20 21 22 24 23 20 53 23 34 40 260 29 20 215 20 21 61 34 33 26 193 28 34 25 21 20 52 141 42 117 64 45 24 25 45 55 27 35 25 43 139 22 225 26 130 20 24 27 35 117
leaf_count=253 32 20 23 24 124 22 21 37 25 34 70 670 20 21 20 31 21 20 86 41 22 22 153 33 30 24 22 42 35 29 34 25 24 28 24 36 28 20 31 26 22 47 297 23 20 24 589 26 23 20 21 22 24 23 20 53 23 34 40 260 29 20 215 20 21 61 34 33 26 193 28 34 25 21 20 52 141 42 117 64 45 24 25 45 55 27 35 25 43 139 22 225 26 130 20 24 27 35 117
internal_value=-0.179338 29.252 -2.32378 25.2387 -4.13593 6.0297 43.4535 19.8918 52.1368 -5.34271 -1.26747 -5.78853 9.3721 34.5771 3.5958 25.0506 26.5911 28.8549 2.71802 -5.14892 26.1512 8.03354 -2.55899 5.45705 -2.91772 -3.4131 -4.66513 0.518771 6.79306 -1.32041 9.89425 11.471 10.1193 12.0518 1.4881 -3.15984 16.1163 17.913 15.0156 13.2181 16.913 -1.88257 -5.3601 8.06275 15.3659 4.37617 -6.7919 8.47484 3.57563 13.3828 5.76755 -3.43995 9.88436 0.819029 1.97938 -3.57052 -1.09282 -0.316016 3.16523 -5.67583 -4.31769 -5.29976 -6.49694 5.42641 6.08806 -5.12193 4.44796 -3.90672 7.00746 -4.11922 2.4459 4.11959 11.986 1.10971 1.96863 0.88375 1.4008 -7.59582 -2.32862 -1.80726 -2.54388 2.4726 0.501154 2.38449 -2.68208 3.37648 -1.90897 8.06807 8.71083 -0.762682 -0.393272 -4.7462 -1.37082 -1.17837 -0.0220019 -4.05986 7.9811 -0.541381 -3.29613
internal_weight=6199 421 5778 401 4748 1030 91 310 46 3342 1406 2823 434 45 596 131 94 63 405 1724 42 265 816 191 519 187 117 590 159 70 106 169 99 52 273 489 179 68 111 57 54 489 1537 56 48 135 1099 72 279 70 44 95 46 126 68 327 246 317 235 1015 71 49 804 87 67 345 56 274 47 227 134 101 45 249 106 86 207 295 262 145 81 48 48 66 243 67 90 103 68 231 161 522 223 197 67 85 47 58 150
internal_count=6199 421 5778 401 4748 1030 91 310 46 3342 1406 2823 434 45 596 131 94 63 405 1724 42 265 816 191 519 187 117 590 159 70 106 169 99 52 273 489 179 68 111 57 54 489 1537 56 48 135 1099 72 279 70 44 95 46 126 68 327 246 317 235 1015 71 49 804 87 67 345 56 274 47 227 134 101 45 249 106 86 207 295 262 145 81 48 48 66 243 67 90 103 68 231 161 522 223 197 67 85 47 58 150
is_linear=0
shrinkage=0.1


Tree=9
num_leaves=100
num_cat=0
split_feature=18 18 16 16 18 20 16 18 12 13 16 20 18 16 13 4 17 16 4 7 20 13 20 18 18 13 13 13 4 20 1 16 2 13 13 1 18 22 22 17 13 1 18 13 22 4 15 16 1 22 14 18 2 2 13 14 2 22 14 14 17 13 7 14 16 1 1 17 14 18 15 16 18 18 14 9 13 16 2 17 22 1 1 22 22 2 13 13 2 14 18 2 22 13 14 22 13 7 13
split_gain=3.16906e+07 1.10126e+07 7.09884e+06 3.16342e+06 1.24767e+06 914997 568130 489062 329306 191808 175897 147746 119003 91758.3 90892.9 88138.9 87830.1 73549.9 72420 84424.6 162436 71137.4 52403.1 50305 46781.9 40975.9 40438.6 38048.4 53081.6 37118.4 45376.2 43524.1 38281.5 36098.2 34266.1 32336.3 32271.9 30199.2 25456.1 23837.4 22978.2 21594.1 20849.9 19999.8 19747.9 18725.3 29049.4 17934.5 16929 16768.6 17885.6 16577.3 16071.9 29141.7 15724.1 15383.3 17435.7 23154.3 19743.5 15372.7 14637.9 14516.3 13133.7 14063.6 12868.8 12657.9 11673.9 11189.8 11173.3 9622.33 9584.7 8656.38 8596.33 8464.08 7477.7 7428.76 7317.08 7717.66 6917.29 7052.75 6860.44 9636.94 6839.61 7404.29 6808.4 6477.75 6476.09 6461.16 6109.68 5571.7 5473.75 5318.09 5306.41 5028.57 4911.23 4893.15 4712.88 4523.63 4266.41
threshold=774.20400000000006 4079.4310000000005 159.97400000000002 1651.4450000000004 368.94000000000011 233.83877807038812 2264.9550000000004 1112.9820000000002 280.50000000000006 237.4615171703297 531.76760000000002 233.83877807038812 55.890000000000008 48.530000000000008 594.13006250000012 94.500000000000014 10.500000000000002 258.02600000000007 416.50000000000006 257.17649870506989 348.44919349617572 431.61650000000003 233.83877807038812 247.94000000000003 70.975000000000009 274.7887222222223 138.93081766917297 237.4615171703297 340.50000000000006 416.80940808615475 871.50000000000011 692.45000000000016 7.5000000000000009 344.53624877450983 157.20542673992676 824.50000000000011 397.26000000000005 572.71239547104631 397.14395648626629 7.5000000000000009 304.34076796308511 341.50000000000006 647.87200000000018 262.69166666666672 560.54971011653072 325.50000000000006 1.0000000180025095e-35 102.67200000000001 1242.5000000000002 283.69170225183012 419.50000000000006 933.399 17.500000000000004 31.500000000000004 310.6788631910897 122.50000000000001 19.500000000000004 1156.2139517799922 266.50000000000006 173.50000000000003 8.5000000000000018 379.50036458333341 175.70863587675385 75.500000000000014 90.800500000000014 319.50000000000006 1454.5000000000002 8.5000000000000018 264.50000000000006 27.417000000000005 1.0000000180025095e-35 287.96900000000011 83.936000000000021 18.512000000000004 264.50000000000006 1.5000000000000002 231.14534615384619 235.554 33.500000000000007 7.5000000000000009 65.749290942372212 450.50000000000006 1566.5000000000002 560.54971011653072 102.29251568324635 37.500000000000007 45.784982456140362 277.03723106060613 29.500000000000004 513.50000000000011 25.940000000000005 19.500000000000004 45.228616235812645 174.41500198412703 79.500000000000014 1374.3847981323688 223.49649074074077 429.69395152380952 164.33612500000001
decision_type=2 2 2 2 2 2 2 2 2 2 2 2 2 2 2 2 2 2 2 2 2 2 2 2 2 2 2 2 2 2 2 2 2 2 2 2 2 2 2 2 2 2 2 2 2 2 2 2 2 2 2 2 2 2 2 2 2 2 2 2 2 2 2 2 2 2 2 2 2 2 2 2 2 2 2 2 2 2 2 2 2 2 2 2 2 2 2 2 2 2 2 2 2 2 2 2 2 2 2
left_child=2 3 5 7 11 9 16 15 -8 13 21 23 34 26 24 -2 -5 33 19 -9 -21 22 68 43 40 64 86 28 -17 30 31 32 -12 62 92 37 65 -29 -34 48 69 44 59 -4 71 -43 -47 80 -25 -38 60 -37 -32 -54 66 -42 95 58 74 -31 -51 72 -13 -64 84 -24 -36 -52 -6 -11 -45 -19 -27 94 85 -41 78 97 79 -65 -15 -82 83 -66 -14 -58 -1 -26 -56 -77 -68 -74 -7 -75 -28 -57 -73 -78 -83
right_child=1 -3 4 6 10 12 8 18 -10 14 29 17 25 47 -16 27 -18 41 -20 20 -22 -23 36 39 87 61 73 35 -30 42 52 -33 38 -35 54 51 49 -39 -40 75 55 45 -44 70 -46 46 -48 -49 -50 50 67 -53 53 -55 88 56 57 -59 -60 -61 -62 -63 63 76 82 -67 90 -69 -70 -71 -72 96 91 93 -76 89 77 -79 -80 -81 81 98 -84 -85 -86 -87 -88 -89 -90 -91 -92 -93 -94 -95 -96 -97 -98 -99 -100
leaf_value=-7.5050163269042969 20.012092536926271 98.747119979858397 -2.2191384684066384 26.986853837966919 4.4454031291845686 -5.2946499119634218 56.154823811848964 29.175406042734785 39.168509887695315 -4.9885029488661168 5.6590599656105045 -0.2887026453780574 -3.4040601332982385 -6.2232637221996603 0.98129631911005299 8.4525004080363697 35.842344483875095 0.39548148930072791 18.934275193092152 17.092716634273529 26.884662914276124 11.719577951942172 2.6443382346111797 1.3604932950093198 -3.3911368112410267 -0.7580689279472127 -5.1446182809224945 19.036213039398195 14.610048116956438 11.959444793065389 5.1545446170301279 13.526556212326577 8.3537975804011033 4.9667126967509594 -2.9506223616288536 11.086483850081763 5.3278582253200675 14.120995937347415 12.508715317989219 1.2932168141389506 -2.5027958198999749 3.612015766727513 13.74383658340999 -1.0255704270468819 5.1265450509265067 3.947182855298442 8.2763360046571304 -3.1682145292108714 5.1295968684283171 10.484662222093151 4.8997004203796388 14.8032621383667 10.865359572001866 5.6573648008433253 0.23039714350844875 -3.5076056874023296 -3.338890610570493 -7.0894213705351863 -2.7386731005551521 8.2055579370260237 7.5006810992104667 3.043960792774504 3.3756110718473793 2.3545627062137311 -1.4343357288549026 5.664264218131347 -2.5037906137723773 7.922662993768852 1.8716665629417666 -4.2523763002165946 1.4413152222122465 2.0771135404706 2.0092008420399257 -5.674900479606503 -6.7288122260052221 -1.6295989632606507 2.2834246786201704 3.7441940775513651 -0.20657316584919774 0.60304437514527576 -2.466136221658616 -5.1784996747970586 0.044380970883973039 0.36608373480183737 -1.5963700829993321 -5.7390659679066056 -6.578673316170188 -2.2540338130529833 -1.8927615523338319 0.63035445585846905 -1.2884537213544052 0.36448499759038294 -3.6626977827724994 -4.9675641751922335 -5.974114348105207 -1.8918929782407039 3.7870051050972608 0.59868259519338618 -4.3146890335195653
leaf_weight=97 25 20 98 24 37 23 21 24 25 508 24 43 24 26 35 28 21 20 39 32 36 21 23 26 93 51 82 25 28 24 29 29 30 30 199 24 35 25 29 39 78 58 28 36 32 31 31 110 22 31 25 24 21 22 33 53 23 33 57 20 35 22 38 39 124 35 63 24 31 273 28 40 28 181 23 24 34 20 43 56 21 104 79 28 158 22 340 108 23 20 90 66 149 226 551 29 27 30 127
leaf_count=97 25 20 98 24 37 23 21 24 25 508 24 43 24 26 35 28 21 20 39 32 36 21 23 26 93 51 82 25 28 24 29 29 30 30 199 24 35 25 29 39 78 58 28 36 32 31 31 110 22 31 25 24 21 22 33 53 23 33 57 20 35 22 38 39 124 35 63 24 31 273 28 40 28 181 23 24 34 20 43 56 21 104 79 28 158 22 340 108 23 20 90 66 149 226 551 29 27 30 127
internal_value=-0.161404 26.3268 -2.0914 22.7148 4.05484 -4.09034 39.1081 17.9026 46.9231 -4.96255 7.7647 1.68311 -1.68425 -5.61758 -4.04748 14.5047 31.1194 2.61849 22.5455 24.0764 22.2767 6.10889 5.68199 -0.142946 -4.18287 -0.671389 -5.97709 13.6106 11.5313 9.68569 8.93245 10.1916 9.02631 1.65783 -2.69711 14.7988 6.46985 16.5786 10.396 1.31417 -4.43941 3.95698 11.6106 -1.32123 3.00246 4.90355 6.11176 -4.24904 3.088 7.2444 7.82769 12.9449 6.97384 8.2008 -2.19805 -3.72282 -4.11933 -4.73337 -4.11137 10.2531 8.90225 0.650415 1.33022 1.59796 -1.20587 4.46671 -2.44566 6.38034 3.27208 -4.73119 0.053692 2.22119 0.287256 -5.63791 -5.26201 0.288339 1.29368 2.02953 0.845767 1.32209 -4.6767 -4.51714 -0.710395 -1.10268 -1.83475 -4.51231 -6.78429 -2.78016 -0.641614 -0.602347 -1.78889 0.8544 -3.88092 -5.28213 -5.86666 -2.9362 2.76617 1.4937 -4.70359
internal_weight=6199 421 5778 401 1418 4360 91 310 46 3200 553 865 1160 1865 1335 179 45 572 131 92 68 297 276 293 1300 580 1477 154 56 256 184 112 83 333 580 98 208 50 59 131 1099 239 72 162 119 120 62 388 48 150 115 48 72 43 408 318 240 158 125 44 66 167 303 260 413 58 352 49 68 781 64 87 145 1040 68 83 222 84 138 95 278 252 231 152 182 45 437 201 56 44 153 94 172 407 633 82 67 64 231
internal_count=6199 421 5778 401 1418 4360 91 310 46 3200 553 865 1160 1865 1335 179 45 572 131 92 68 297 276 293 1300 580 1477 154 56 256 184 112 83 333 580 98 208 50 59 131 1099 239 72 162 119 120 62 388 48 150 115 48 72 43 408 318 240 158 125 44 66 167 303 260 413 58 352 49 68 781 64 87 145 1040 68 83 222 84 138 95 278 252 231 152 182 45 437 201 56 44 153 94 172 407 633 82 67 64 231
is_linear=0
shrinkage=0.1


Tree=10
num_leaves=100
num_cat=0
split_feature=16 16 18 18 16 20 16 16 1 13 20 5 12 18 19 20 13 18 13 13 16 20 7 14 18 13 13 16 18 7 1 14 18 18 1 13 13 7 22 13 5 19 22 13 20 13 14 18 5 1 22 13 13 3 13 13 1 15 18 18 1 9 13 7 1 22 14 13 13 1 13 1 3 17 14 1 14 9 22 18 14 16 13 14 20 16 22 6 1 14 19 13 21 18 18 21 1 14 14
split_gain=4.78067e+07 2.05644e+07 4.68663e+06 2.66968e+06 1.53583e+06 600719 491341 328042 325063 154828 139110 121609 147415 128349 93320.1 75966.2 73872.9 69376.1 68227.5 79663.5 71508.6 67213.8 56737.9 52376.9 51518.8 48371 48260.1 47623.4 42749.7 41575.2 35117.5 34715.1 33446.8 32113.5 28017.5 28222.5 26046.1 25808.7 25428.1 25345 38033.7 24304.6 24270.1 23125.8 22162.6 21275.4 17736.9 17258.4 16910.4 15207.5 15150.6 14706.4 13915.9 12807.5 16004.2 12780.7 12268.6 12074.7 11386 11259.1 16426.6 12315.8 10844.1 10332.7 14322.5 9507.27 8974.66 8816.94 8691.48 8513.21 8329.78 8037.77 11137.9 10677.6 8003.03 7669 7649.75 10381.8 11268.9 7538.91 7528.15 7321.77 7127.85 7081.77 6441.61 6215.2 6209.14 7295.04 5973.79 5887.19 6886.12 7735.42 6124.3 5878.8 5784.16 5740.68 5163.34 5153.82 8026.19
threshold=4161.4810000000007 454.71000000000009 1168.3070000000002 118.20500000000001 2264.9550000000004 233.83877807038812 726.5680000000001 252.98800000000003 1599.5000000000002 204.59487687969929 233.83877807038812 768.3363635184246 853.00000000000011 1418.7120000000002 2.5000000000000004 233.83877807038812 594.13006250000012 28.767000000000003 369.90131073446332 169.96537690100436 1115.6830000000002 416.80940808615475 239.76164239605092 510.50000000000006 397.26000000000005 382.68150000000009 335.02998888888897 599.93500000000006 43.640000000000008 317.59875625786492 1242.5000000000002 79.500000000000014 45.44400000000001 647.87200000000018 319.50000000000006 278.27940000000007 358.60679450000003 508.89484227062712 633.05591808483075 238.66726717032972 592.97866376459433 4.5000000000000009 551.93630338564878 126.31330000000003 416.80940808615475 304.73331300813015 420.50000000000006 174.29300000000003 435.91163287622015 450.50000000000006 224.14219312708767 117.89785714285715 174.09082954545457 2.5000000000000004 244.76002824074078 134.49869155844158 1667.0000000000002 1.0000000180025095e-35 77.660000000000011 194.614 1566.5000000000002 1.5000000000000002 94.55145882352943 508.89484227062712 124.50000000000001 335.18901478804065 615.50000000000011 183.11750000000004 149.40537342767297 70.500000000000014 342.08842820999376 1765.5000000000002 2.5000000000000004 10.500000000000002 122.50000000000001 1308.5000000000002 135.50000000000003 1.5000000000000002 1142.9418655647276 194.614 537.50000000000011 89.576000000000008 204.33967687969928 228.50000000000003 459.56006279727575 17.015000000000004 539.62869384123576 232.1603230315969 1518.5000000000002 78.500000000000014 5.5000000000000009 154.81133660714286 2525.5000000000005 333.07300000000004 87.940000000000012 2525.5000000000005 1112.5000000000002 79.500000000000014 70.500000000000014
decision_type=2 2 2 2 2 2 2 2 2 2 2 2 2 2 2 2 2 2 2 2 2 2 2 2 2 2 2 2 2 2 2 2 2 2 2 2 2 2 2 2 2 2 2 2 2 2 2 2 2 2 2 2 2 2 2 2 2 2 2 2 2 2 2 2 2 2 2 2 2 2 2 2 2 2 2 2 2 2 2 2 2 2 2 2 2 2 2 2 2 2 2 2 2 2 2 2 2 2 2
left_child=1 3 6 5 11 9 21 10 -6 28 36 12 13 -4 -14 30 32 55 19 -8 22 25 -21 -15 34 27 44 48 43 -24 49 -31 45 41 89 71 47 52 57 40 51 83 93 -1 50 66 -39 65 -3 -9 -19 -12 -29 -50 67 -7 -37 -26 -52 60 -41 -61 -30 -33 -65 -5 80 -55 -46 -53 94 72 -36 -74 -47 95 -76 78 -78 -71 85 -70 -51 -23 -57 -11 -87 -88 -28 -17 91 -91 -93 -32 -34 -49 -72 98 -45
right_child=-2 2 4 7 8 17 18 15 -10 16 39 -13 14 23 -16 24 -18 26 -20 20 -22 33 29 -25 38 -27 88 37 62 31 42 63 70 -35 35 56 -38 46 -40 59 -42 -43 -44 97 68 74 -48 75 53 82 58 69 -54 54 -56 84 -58 -59 -60 61 -62 -63 -64 64 -66 -67 -68 -69 81 79 96 -73 73 -75 76 -77 77 -79 -80 -81 -82 -83 -84 -85 -86 86 87 -89 -90 90 -92 92 -94 -95 -96 -97 -98 -99 -100
leaf_value=-6.2841080858663547 154.47288249969483 3.7642097695668539 15.203799773485233 -3.5504241443071209 35.74164085388184 -4.3271703498704097 18.240800444896404 2.152478655747005 52.777910391489662 -4.6412782805704929 -1.5096039559530174 29.925522677103682 31.457813008626303 20.348116654616135 22.030390466962544 0.69475552558898934 0.79728184802965685 -3.3495690906592288 19.160151405334471 15.159626489215427 17.834929965791247 8.6843916021544363 7.2604407548904426 26.450384001298389 6.6651399460103775 11.552753755024503 2.3208756382266684 4.6295168972015386 -5.5408728014020365 15.128763905438511 0.39917375230789187 9.0954192468098238 -3.6047834815215865 13.134475871423881 4.7058297351554588 7.9650889914968745 1.4882506420612336 11.577126623966077 9.320075078010559 0.51329490579204795 4.2730207880338034 11.324889600276947 5.1121323717051546 -5.7247150115966798 -1.8067551833968007 -2.4055602716187301 7.6480425453186029 -0.59445780038833618 4.4413435600697992 -2.177674471890485 -2.0929040268418335 1.7959120829900106 7.8223482082056455 6.5427851568568842 4.776363956928253 -2.8807629887014627 4.6619325030933734 3.7012707488877434 -0.72113027793637829 1.46125796673929 3.0333681117547187 4.021455304963248 -3.9358019795840704 13.421623364361849 10.085399356965096 -1.98070308826509 -2.5931998138427734 9.3429905777392186 -0.82835769263521719 -0.35370488329245164 -0.69837110310792927 4.9427340189615885 1.3797196945006198 4.0018811821937561 -5.4486325222512955 0.12141580551862717 -3.6184281410709502 -2.7196209553806554 -6.2986691792805996 0.93902195220519058 -4.9932865269451225 0.48536387469808934 0.028544188011437654 6.3051116211847829 -1.5444918901421305 -4.4663383707942739 -1.9889220739404363 -3.8739511638302617 0.33165569397119377 0.44265203475952153 4.1915930281082785 3.527333714106144 1.7313528507142455 2.5089341555322924 -2.6857997335493566 -2.1462844828427849 -2.83555941765125 -5.4000328098808161 -4.1208921892097194
leaf_weight=326 20 45 39 61 24 56 26 21 21 342 46 21 21 39 21 20 33 65 20 36 21 29 28 22 27 21 36 20 51 22 25 28 239 24 27 23 25 27 20 81 24 28 29 50 62 59 20 40 32 27 189 39 43 22 24 224 22 28 89 34 38 42 241 22 31 105 25 23 151 111 20 27 44 24 23 40 62 84 21 76 241 59 32 22 43 166 24 142 26 20 21 39 37 28 96 59 26 739 83
leaf_count=326 20 45 39 61 24 56 26 21 21 342 46 21 21 39 21 20 33 65 20 36 21 29 28 22 27 21 36 20 51 22 25 28 239 24 27 23 25 27 20 81 24 28 29 50 62 59 20 40 32 27 189 39 43 22 24 224 22 28 89 34 38 42 241 22 31 105 25 23 151 111 20 27 44 24 23 40 62 84 21 76 241 59 32 22 43 166 24 142 26 20 21 39 37 28 96 59 26 739 83
internal_value=0.111465 -0.380367 14.3646 -2.60224 27.3378 -3.87839 9.96975 1.23275 43.6919 -4.56724 -0.0270541 22.8228 21.7724 19.6843 26.7441 3.14458 -3.88512 -1.74778 13.5746 13.0526 12.3351 7.7499 11.6435 22.5489 3.91931 6.93891 -1.17245 6.56043 -5.30109 10.6773 1.3321 11.6061 -3.98354 9.93091 3.3402 4.20972 -1.61484 8.13177 6.26661 1.04009 0.456945 8.95768 2.78636 -5.56554 -1.44053 -4.24482 9.90518 -1.86919 5.37654 -0.158522 -1.97511 0.120232 6.80875 6.09491 6.86178 -2.95364 6.35021 5.15626 -1.65374 1.92528 1.31802 2.8761 -4.21614 10.6493 11.4702 -2.55753 -4.46253 7.974 -0.766413 0.451969 -3.16817 3.4202 2.98748 2.30519 -3.42293 -1.04714 -3.73885 -3.50337 -4.29656 0.171681 -4.5136 -0.459264 -0.981081 7.65804 -2.66556 -4.34208 -4.03388 -3.60142 1.48669 2.28028 2.5513 2.19249 2.65297 1.51376 -3.34143 -1.51928 -1.90635 -5.2969 -4.72383
internal_weight=6297 6277 822 5455 208 4093 614 1362 45 3093 821 163 142 100 42 541 1603 1000 234 214 188 380 167 61 379 277 677 256 1490 131 162 103 1570 103 304 167 330 110 75 491 296 79 82 1198 615 1189 47 305 146 80 343 272 63 101 69 323 45 55 278 195 119 76 292 81 53 166 940 45 272 226 381 122 95 68 249 139 190 167 83 187 915 210 59 51 267 674 332 166 62 137 117 96 76 53 335 99 46 872 133
internal_count=6297 6277 822 5455 208 4093 614 1362 45 3093 821 163 142 100 42 541 1603 1000 234 214 188 380 167 61 379 277 677 256 1490 131 162 103 1570 103 304 167 330 110 75 491 296 79 82 1198 615 1189 47 305 146 80 343 272 63 101 69 323 45 55 278 195 119 76 292 81 53 166 940 45 272 226 381 122 95 68 249 139 190 167 83 187 915 210 59 51 267 674 332 166 62 137 117 96 76 53 335 99 46 872 133
is_linear=0
shrinkage=0.1


Tree=11
num_leaves=100
num_cat=0
split_feature=16 16 16 16 16 16 20 16 19 13 16 20 5 13 16 4 20 16 13 0 20 20 16 22 16 13 19 20 13 13 20 13 14 16 20 0 13 6 13 6 20 19 14 5 16 0 13 22 20 17 14 16 4 5 16 13 2 16 13 5 22 13 22 13 4 4 5 14 13 22 0 0 16 16 3 22 20 22 14 19 14 2 14 13 5 2 13 12 17 2 12 16 13 20 14 14 13 14 9
split_gain=3.87235e+07 1.66661e+07 3.43076e+06 2.4813e+06 1.05702e+06 484736 480886 356220 304362 127732 116904 115950 94437.8 90422.7 81338.3 72834.7 68974.1 55399.7 51912.7 51861.8 50879.6 50632.7 48536.7 48072.6 44854.9 42206.1 38087.8 34768.6 34682.7 34633.7 32322.8 24704.5 34457.4 24116.3 30199.9 23692.7 29243.6 21852.6 21432.4 21258.4 21100.7 20730.2 26412.2 19188.6 19124.1 18452.7 16747.2 16283 15616.5 18243 15475.5 15023.3 14702.3 14473.8 13844.5 13147.8 11302.4 10893.7 10400.1 9687.7 9379.15 9200.73 9106.03 8450.6 8284.32 7921.7 7842.25 7794.1 7712.07 7527.1 11197 7334.05 10515.5 7161.78 6632.53 6556.48 6548.62 8288.32 6784.12 6116.17 6092.78 7259.58 8209.58 5995.27 5762.04 5731.42 5685.02 5543.71 5464.51 5327.17 5557.26 6027.9 5136.59 4878.63 4829.57 4649.59 4594.88 4582.61 4474.11
threshold=4161.4810000000007 497.23500000000007 1329.1730000000002 117.98 2264.9550000000004 726.5680000000001 233.83877807038812 252.98800000000003 4.5000000000000009 257.1370502392345 1115.6830000000002 233.83877807038812 559.84257003808796 169.96537690100436 390.12100000000004 319.50000000000006 385.51750890172025 35.346000000000011 594.13006250000012 3.5000000000000004 416.80940808615475 233.83877807038812 1498.8080000000002 551.93630338564878 48.530000000000008 335.02998888888897 1.0000000180025095e-35 348.44919349617572 223.93454861111113 143.69368604651166 117.98861311920145 342.08842820999376 79.500000000000014 599.93500000000006 356.26055577184309 15.500000000000002 287.17960411899321 221.27125093740651 358.60679450000003 232.1603230315969 459.56006279727575 4.5000000000000009 343.50000000000006 522.63799615515336 34.392000000000003 14.500000000000002 183.11750000000004 156.03106010119143 348.44919349617572 8.5000000000000018 214.50000000000003 215.97200000000001 214.50000000000003 116.83508953818314 83.936000000000021 134.49869155844158 20.500000000000004 174.36000000000004 108.15719047619049 522.63799615515336 224.91752726992038 319.39706250000006 335.18901478804065 244.35834074074077 403.50000000000006 245.50000000000003 522.63799615515336 79.500000000000014 272.2400258215963 311.28059943881379 10.500000000000002 12.500000000000002 899.96000000000015 10.374000000000002 3.5000000000000004 633.05591808483075 459.56006279727575 258.70942169388087 419.50000000000006 5.5000000000000009 615.50000000000011 32.500000000000007 52.500000000000007 248.17342424242426 243.28309660892239 39.500000000000007 45.784982456140362 853.00000000000011 7.5000000000000009 40.500000000000007 1133.5000000000002 197.84500000000003 197.61145312500003 385.51750890172025 219.50000000000003 214.50000000000003 373.13494230769237 53.500000000000007 1.5000000000000002
decision_type=2 2 2 2 2 2 2 2 2 2 2 2 2 2 2 2 2 2 2 2 2 2 2 2 2 2 2 2 2 2 2 2 2 2 2 2 2 2 2 2 2 2 2 2 2 2 2 2 2 2 2 2 2 2 2 2 2 2 2 2 2 2 2 2 2 2 2 2 2 2 2 2 2 2 2 2 2 2 2 2 2 2 2 2 2 2 2 2 2 2 2 2 2 2 2 2 2 2 2
left_child=1 3 5 6 12 20 9 11 -6 24 13 38 22 -7 23 -14 39 55 44 -15 26 -21 -4 27 29 46 -3 53 -22 86 -16 32 -23 65 59 36 47 -25 57 -12 45 48 -43 52 61 95 76 93 49 -32 -30 -49 -38 -9 66 -8 88 62 -26 -35 -29 80 94 -53 83 98 67 84 -67 -50 -71 -34 -73 -31 -62 87 77 -19 -79 -63 81 82 -11 -55 -48 -83 -1 -57 -46 90 91 -59 -93 -13 -5 -39 -27 -84 -28
right_child=-2 2 4 7 8 10 17 14 -10 18 16 35 15 19 30 -17 -18 25 -20 21 28 31 -24 37 58 96 33 60 50 73 41 -33 71 34 -36 -37 43 40 -40 -41 -42 42 -44 -45 56 -47 54 51 69 -51 -52 63 -54 64 -56 75 -58 89 -60 -61 74 79 -64 -65 -66 68 -68 -69 -70 70 -72 72 -74 -75 -76 -77 -78 78 -80 -81 -82 85 97 -85 -86 -87 -88 -89 -90 -91 -92 92 -94 -95 -96 -97 -98 -99 -100
leaf_value=-6.1085648422941157 139.02559538364412 10.041886001399586 15.981842810532143 -1.9101652956008914 31.257013155066449 17.885168214466262 -3.7756692442027004 -1.3796250370240981 47.525458493440055 -4.5377593657549689 16.478415662592109 -1.8377873110771181 28.165573406219483 14.777389851738427 1.6290972985465217 20.264325115680695 20.911380065917967 -2.716371971755116 0.7175536235173543 6.8503438595802555 11.948872532564053 14.042887862523399 21.383890161758814 6.7772499821402805 -4.8276800235112516 0.8746117317676545 4.9527649989440334 4.065060343497839 9.4179817256927496 -4.822327218336218 5.2952041739936586 14.495854695638023 10.812983064090504 5.1691975061710069 10.645529899597168 3.528036079984723 5.2740645335270813 2.4314182463855971 1.3394255788326266 12.030278430666243 5.6869621852348597 8.8749679580811538 4.4024245192175329 0.058084733377803455 -0.82251790385497248 5.1720769560053235 -1.1363780388236047 0.35051468011210951 4.0698582042347304 1.3468564023971559 5.7356596055484959 1.2934364855537812 1.9717071739690646 1.0351339687763805 0.20767265315353872 -1.642183090900553 -3.0478890659838074 0.63269674323853997 -3.3642409591299547 7.3338630456519738 1.5578210674605129 -2.7874731629317808 -1.6785843021401736 3.7639043493568902 -0.6859482033686205 6.9389878484937881 -2.8448822961403777 -1.3567564719832028 4.5015399303436281 4.6658074959402995 7.8595704120138423 7.3115745240991776 10.403430717641658 -4.3060572621782978 3.2136733063837379 -1.5014845406346851 -0.79031666711319337 -0.41447394686309913 -2.3743433584769567 -4.305990305542946 -2.3316330194473269 -5.6975810841151651 -2.3966248976878632 2.9584887981414796 1.1213166814010878 -4.187107854478815 -5.2934564815693763 -2.7591369840894875 -2.4204022896533113 0.27800428295135499 -2.2287655169534131 -2.6226162338256835 -0.52433348212923325 -0.11510142972392422 -3.7911068539286767 0.72984595528015728 2.7309952159722646 -3.59348674259159 2.8885325795128232
leaf_weight=109 20 28 29 20 23 23 66 31 23 85 22 35 28 34 27 20 25 108 33 31 34 24 39 22 57 30 21 39 25 408 22 21 34 39 20 33 26 42 25 21 29 31 23 22 38 21 20 255 22 25 21 45 28 71 100 58 247 21 328 44 59 155 107 20 22 27 26 143 25 21 23 22 22 787 41 90 43 38 33 32 24 35 39 21 26 89 398 190 49 25 43 20 28 31 43 26 24 178 21
leaf_count=109 20 28 29 20 23 23 66 31 23 85 22 35 28 34 27 20 25 108 33 31 34 24 39 22 57 30 21 39 25 408 22 21 34 39 20 33 26 42 25 21 29 31 23 22 38 21 20 255 22 25 21 45 28 71 100 58 247 21 328 44 59 155 107 20 22 27 26 143 25 21 23 22 22 787 41 90 43 38 33 32 24 35 39 21 26 89 398 190 49 25 43 20 28 31 43 26 24 178 21
internal_value=0.100318 -0.34233 13.6882 -2.23471 26.564 10.1164 -3.49428 1.32696 39.3912 -4.10979 13.1287 -0.0303117 21.4773 11.9667 3.14324 24.8734 16.7345 -1.58218 -3.18297 11.2426 7.36095 10.4622 19.0801 2.36723 -4.55566 -0.965249 6.5908 1.61962 9.527 -4.77615 4.83928 11.3725 10.7294 6.10029 7.15727 0.939414 0.754512 3.88379 -1.47614 14.3061 3.34433 5.35829 6.97 2.54752 -3.31553 2.581 -1.23323 0.401485 4.5881 3.19502 7.73692 0.69645 3.56173 0.5363 -0.76441 -2.48468 -2.70265 -1.70542 -3.58091 6.31673 2.74971 -3.63688 -2.24017 2.05358 1.0573 4.94211 -1.21654 -0.992537 5.76714 5.58014 6.33527 9.70989 8.8575 -4.48232 2.23672 -2.23259 -1.89845 -2.16465 -1.3254 -3.04733 -3.88188 -3.96922 -3.7047 1.47416 0.13971 -4.61345 -5.4687 -2.49791 -1.72248 -1.04185 -1.33646 -0.780392 -1.39862 -1.02865 -3.19398 1.78082 1.69967 -3.37838 3.92065
internal_weight=6297 6277 746 5531 162 584 4086 1445 46 3091 279 827 116 211 618 48 68 995 1004 188 305 154 68 424 2087 591 225 284 80 1702 194 123 102 197 103 495 462 140 332 43 118 167 54 76 971 89 537 386 113 47 46 320 54 145 315 404 334 307 385 83 139 637 170 65 114 94 215 189 52 66 44 78 44 1195 100 338 222 179 71 187 450 426 302 92 46 124 507 248 87 137 112 69 48 66 63 68 54 217 42
internal_count=6297 6277 746 5531 162 584 4086 1445 46 3091 279 827 116 211 618 48 68 995 1004 188 305 154 68 424 2087 591 225 284 80 1702 194 123 102 197 103 495 462 140 332 43 118 167 54 76 971 89 537 386 113 47 46 320 54 145 315 404 334 307 385 83 139 637 170 65 114 94 215 189 52 66 44 78 44 1195 100 338 222 179 71 187 450 426 302 92 46 124 507 248 87 137 112 69 48 66 63 68 54 217 42
is_linear=0
shrinkage=0.1


Tree=12
num_leaves=100
num_cat=0
split_feature=18 18 18 18 18 20 18 4 18 7 20 22 20 18 1 22 18 17 20 22 18 1 22 9 1 7 5 9 20 1 22 18 18 19 7 1 0 18 18 2 19 2 22 1 22 17 22 22 18 0 15 7 20 18 7 2 20 20 22 5 4 4 18 22 22 2 22 3 22 18 5 22 4 22 17 22 22 0 18 1 1 18 18 1 22 15 18 18 18 1 22 18 19 22 4 19 2 1 9
